svm_type c_svc
kernel_type rbf
gamma 0.0078125
nr_class 7
total_sv 354
rho -0.294624 0.101975 -0.0628725 -0.409073 -0.36431 -0.475519 0.992917 -0.482782 -1.3482 0.369685 -0.552025 -0.983755 -0.143238 0.180207 -0.391429 -0.120893 0.201868 -0.254426 -0.128262 0.0137132 -1.05026
label 0 3 6 5 4 1 2
nr_sv 65 52 60 38 53 52 34
SV
0 1.253978255855903 0 0 0 0 1:-0.293946 2:-0.232532 3:0.300085 4:0.012697 5:-0.0785331 6:0.304183 7:-0.431969 8:-0.531527 9:-0.474193 10:-0.0811209 11:-0.095847 12:-0.0897326 13:-0.297948 14:-0.201705 15:-0.168371 16:0.133199 17:-0.363932 18:0.323818 19:-0.0201629 20:-0.288824 21:-0.480838 22:-0.528473 23:-0.583251 24:0.184128 25:-0.682292 26:-0.0589951 27:-0.467669 28:-0.0602031 29:-0.259568 30:-0.0161276 31:0.094938 32:0.160052 33:-0.459574 34:-0.511896 35:-0.584761 36:0.0288605 37:-0.0521254 38:0.0569703 39:-0.581277 40:-0.0889666 41:-0.332453 42:-0.199337 43:-0.0367487 44:0.0216623 45:-0.33553 46:-0.267815 47:0.0236826 48:-0.204406 49:-0.425608 50:-0.03572 51:-0.686856 52:-0.294098 53:-0.261473 54:-0.486637 55:-0.133826 56:-0.09746 57:-0.514459 58:-0.191827 59:0.041103 60:-0.60537 61:0.149587 62:-0.040282 63:-0.532413 64:0.0221146 65:-0.0478319 66:0.0896219 67:-0.055066 68:-0.1252 69:-0.566704 70:0.32744 71:-0.410595 72:-0.271668 73:-0.469611 74:-0.212174 75:-0.117051 76:-0.0437189 77:-0.38403 78:0.34285 79:0.0373645 80:-0.330212 81:0.298162 82:0.333998 83:-0.0414956 84:-0.0816074 85:0.2407 86:0.455041 87:0.511091 88:-0.0795194 89:-0.0197007 90:0.469352 91:0.0754686 92:-0.0324907 93:-0.326556 94:0.234474 95:0.189164 96:-0.108499 97:0.604978 98:0.0911722 99:0.000257904 100:0.478719 101:-0.380476 102:0.564801 103:-0.308003 104:-0.0020815 105:0.361205 106:0.478652 107:0.0333788 108:-0.252897 109:-0.329093 110:0.386086 111:0.109505 112:-0.057229 113:-0.334715 114:0.211371 115:-0.371301 116:0.114984 117:-0.135213 118:0.509168 119:-0.184012 120:-0.368657 121:-0.251055 122:0.377226 123:0.0532809 124:-0.232315 125:0.477436 126:0.510203 127:0.578859 128:0.701669 129:-0.440901 130:0.347936 131:0.0888352 132:-0.507577 133:-0.658391 134:-0.357216 135:-0.78144 136:-0.00584525 137:0.0358998 138:0.399237 139:0.319072 140:-0.0213839 141:0.175175 142:0.75241 143:0.387965 144:-0.588464 145:-0.626663 146:0.344696 147:0.358542 148:-0.470867 149:-0.826766 150:-0.096087 151:0.118999 152:-0.283543 153:-0.38055 154:0.0988829 155:-0.54198 156:-0.112982 157:0.0150716 158:0.244281 159:0.260906 160:0.309625 161:-0.224401 162:-0.0267161 163:-0.00246803 164:-0.102435 165:0.0212721 166:-0.227748 167:0.541874 168:0.183805 169:-0.446161 170:-0.297129 171:-0.583179 172:0.324466 173:-0.403191 174:-0.285861 175:-0.79556 176:0.13341 177:0.364639 178:0.667781 179:0.729857 180:0.418489 181:0.0821701 182:0.136688 183:-0.0571942 184:0.0210981 185:-0.757395 186:0.330552 187:-0.309557 188:-0.63476 
5.527875093949597 0 0 7.637508311260415 0 1.241287891937092 1:0.121536 2:-0.271992 3:-0.437322 4:0.56372 5:0.238849 6:0.16702 7:-0.201655 8:0.231498 9:-0.162127 10:-0.315814 11:0.0725775 12:0.176187 13:-0.099389 14:-0.362507 15:-0.203455 16:0.137535 17:-0.334234 18:0.186571 19:-0.122799 20:0.0241785 21:-0.104431 22:-0.67447 23:-0.205106 24:0.18602 25:-0.319447 26:0.0780561 27:-0.273147 28:0.315946 29:-0.161704 30:0.158711 31:0.279109 32:-0.105411 33:-0.121885 34:-0.637604 35:-0.435454 36:0.765454 37:-0.733129 38:0.19541 39:-0.562063 40:-0.3547 41:0.69597 42:-0.521664 43:-0.0509267 44:0.491115 45:-0.275203 46:-0.256314 47:-0.125892 48:0.159887 49:-0.0649038 50:-0.143233 51:-0.0384966 52:-0.150927 53:0.342604 54:-0.109347 55:0.091054 56:0.285156 57:-0.352367 58:-0.0447141 59:-0.385837 60:-0.206084 61:0.0418884 62:-0.205717 63:-0.313346 64:0.0453711 65:-0.484719 66:-0.413702 67:-0.15909 68:0.243841 69:-0.317886 70:0.560711 71:-0.118835 72:-0.277846 73:0.0668951 74:-0.233485 75:0.286751 76:0.104976 77:-0.140258 78:0.412443 79:0.171768 80:0.269079 81:-0.239269 82:0.254406 83:0.0114172 84:-0.093115 85:0.0778969 86:0.134179 87:0.48396 88:0.286803 89:-0.386189 90:0.56179 91:0.0830302 92:-0.286605 93:-0.00890555 94:-0.151049 95:-0.0356303 96:0.396027 97:-0.0473194 98:0.429854 99:-0.0402456 100:0.157409 101:-0.649898 102:0.181621 103:-0.116606 104:-0.054956 105:0.65053 106:0.00322796 107:-0.0573645 108:0.111235 109:-0.558519 110:-0.593475 111:-0.13569 112:0.205613 113:-0.245442 114:-0.0220517 115:0.050471 116:0.222463 117:-0.471357 118:0.338765 119:-0.436668 120:-0.23679 121:-0.120841 122:0.135053 123:-0.339823 124:-0.261554 125:0.108684 126:0.300506 127:0.377704 128:0.239657 129:-0.249682 130:-0.123565 131:-0.0774806 132:0.0933472 133:-0.678405 134:0.0586546 135:-0.329912 136:-0.205994 137:-0.226494 138:0.28377 139:0.578519 140:-0.0563337 141:-0.167864 142:0.586286 143:0.237149 144:-0.559911 145:-0.245649 146:0.12508 147:0.207515 148:-0.335211 149:-0.278237 150:-0.600416 151:0.0890221 152:0.17298 153:0.57116 154:0.125974 155:0.0587788 156:0.183595 157:-0.470495 158:0.213414 159:-0.273418 160:-0.403295 161:-0.192358 162:0.14673 163:-0.116854 164:-0.157714 165:0.132823 166:0.555853 167:0.669965 168:-0.330419 169:-0.618986 170:-0.130867 171:-0.514714 172:-0.153889 173:-0.192659 174:-0.0471893 175:-0.333433 176:-0.151369 177:-0.0969912 178:-0.000244826 179:0.579311 180:0.455504 181:-0.553563 182:0.158573 183:-0.335818 184:-0.142487 185:-0.355714 186:0.0888474 187:-0.330121 188:-0.655974 
0 0 0 1.106503567432864 0 0 1:-0.049886 2:-0.242707 3:0.0764978 4:-0.094612 5:0.0978573 6:0.191826 7:-0.282492 8:-0.490081 9:0.219536 10:-0.217357 11:-0.139104 12:0.124179 13:0.226231 14:-1 15:-0.687776 16:0.851846 17:-0.134191 18:-0.178198 19:-0.229616 20:0.23758 21:0.762341 22:-0.349603 23:0.0109575 24:0.0614345 25:-0.022124 26:-0.149821 27:-0.0301811 28:0.376234 29:0.358182 30:0.0112947 31:0.200097 32:0.0141715 33:0.0819506 34:-0.221809 35:-0.110132 36:0.392099 37:0.109525 38:-0.502493 39:-0.615214 40:0.271172 41:0.838509 42:0.00116752 43:0.100777 44:0.475428 45:0.351056 46:-0.202615 47:0.141483 48:0.156171 49:-0.00706585 50:0.00120478 51:-0.17369 52:0.257014 53:0.239925 54:-0.171224 55:-0.0790256 56:0.21076 57:-0.561807 58:-0.17498 59:0.0331319 60:-0.462036 61:-0.00693083 62:0.0980152 63:-0.635932 64:0.0364835 65:0.171715 66:-0.135312 67:-0.0391729 68:0.565448 69:-0.332332 70:0.391521 71:-0.528895 72:0.02547 73:-0.222412 74:0.24433 75:-0.0619545 76:-0.0671015 77:-0.0569777 78:0.173827 79:-0.00842947 80:0.0540324 81:-0.160199 82:-0.0910802 83:0.103911 84:0.115364 85:-0.421303 86:-0.291859 87:0.17759 88:0.335068 89:-0.275449 90:-0.105311 91:0.322614 92:-0.0182404 93:0.264931 94:-1 95:0.217541 96:0.505924 97:-0.040459 98:0.226869 99:-0.0789077 100:0.357368 101:-0.0440791 102:0.189903 103:-0.222056 104:0.539218 105:0.517209 106:-0.965369 107:0.0969006 108:0.499505 109:0.508992 110:0.508054 111:0.347057 112:0.10859 113:-0.164415 114:0.332323 115:0.486249 116:0.0103784 117:-0.106328 118:-0.107912 119:-0.322465 120:0.0700965 121:-0.256197 122:-0.309072 123:-0.64148 124:0.113012 125:0.441077 126:0.0653242 127:-0.017966 128:0.447245 129:-0.718567 130:-0.229367 131:-0.269188 132:-0.113526 133:0.249128 134:0.110527 135:-0.0826367 136:0.0160915 137:0.0984255 138:0.421225 139:0.674182 140:0.0348454 141:-0.305945 142:-0.0302859 143:0.128058 144:0.00142686 145:0.64145 146:-0.254606 147:0.411456 148:-0.0831548 149:0.375929 150:-0.536612 151:0.173935 152:0.668375 153:-0.205098 154:-0.824908 155:0.0364114 156:-0.09501 157:-0.591591 158:-0.161851 159:-0.555438 160:-0.101882 161:0.230293 162:0.0622981 163:-0.409604 164:-0.125252 165:0.17151 166:-0.0943782 167:0.544984 168:-0.190798 169:-0.275962 170:-0.300818 171:-0.297438 172:0.204305 173:0.449782 174:0.28986 175:-0.00789169 176:0.107377 177:0.182575 178:0.313116 179:0.458714 180:0.555087 181:-0.401328 182:-0.412721 183:-0.477587 184:0.448198 185:0.322931 186:0.00163879 187:-0.112612 188:-0.178559 
9.341692932397901 0.7638572939860567 0.3222061677669528 20.88780757323502 2.241192101426451 2.168206540818471 1:-0.16626 2:-0.0104584 3:-0.00547666 4:0.301527 5:-0.340849 6:-0.394233 7:-0.509013 8:-0.0108612 9:-0.436044 10:-0.0995456 11:-0.0700658 12:0.0798605 13:-0.588243 14:0.222034 15:-0.258726 16:-0.355209 17:-0.402683 18:-0.326801 19:-0.546128 20:0.340072 21:-0.131284 22:-0.480915 23:-0.103897 24:0.186835 25:-0.809364 26:0.107764 27:-0.40721 28:-0.402125 29:-0.138385 30:-0.146021 31:-0.220709 32:0.597194 33:-0.4835 34:-0.211279 35:-0.308498 36:-0.0123466 37:-0.529295 38:-0.0973052 39:-0.465011 40:-0.0393672 41:-0.388306 42:-0.128013 43:-0.509761 44:-0.0164434 45:-0.857335 46:-0.466571 47:-0.456933 48:-0.324483 49:-0.052321 50:0.357443 51:-0.0304573 52:-0.203594 53:-0.703905 54:-0.147003 55:-0.364229 56:-0.0378933 57:0.195033 58:-0.0552249 59:-0.02511 60:-0.0728986 61:-0.0553386 62:0.158363 63:0.0129231 64:0.0757548 65:-0.527799 66:0.519421 67:-0.367436 68:-0.401507 69:-0.0263406 70:-0.562147 71:0.407866 72:0.525599 73:-0.28642 74:0.486425 75:0.625539 76:-0.172126 77:-0.0823261 78:-0.0682719 79:0.226845 80:0.233772 81:-0.411949 82:0.137537 83:-0.0708313 84:0.0342678 85:-0.117107 86:0.28926 87:0.440418 88:0.070585 89:-0.470845 90:0.356168 91:0.0748255 92:0.112983 93:-0.224258 94:0.332147 95:0.00517421 96:0.124055 97:-0.352155 98:0.418143 99:-0.0365481 100:-0.0468535 101:-0.383488 102:0.167134 103:-0.119208 104:0.387919 105:0.459593 106:0.69501 107:0.158107 108:0.00856053 109:-0.404432 110:-0.363468 111:0.0609725 112:0.472608 113:-0.20874 114:0.148386 115:0.0894551 116:-0.012016 117:-0.84479 118:0.186311 119:-0.54237 120:-0.200123 121:-0.417761 122:0.507204 123:-0.0438102 124:-0.65057 125:-0.22744 126:-0.184023 127:0.00227231 128:0.206779 129:-0.29521 130:0.511174 131:0.273978 132:-0.197024 133:-0.0542073 134:0.602161 135:0.253476 136:-0.296247 137:-0.919645 138:0.182736 139:0.236498 140:-0.735455 141:0.000827272 142:0.765122 143:0.358508 144:-0.526268 145:-0.182901 146:0.147544 147:-0.0252325 148:0.238197 149:-0.689434 150:-0.54894 151:-0.0384006 152:0.261253 153:0.280687 154:0.0194464 155:-0.0773062 156:0.0237904 157:-0.817069 158:0.0268433 159:-0.382069 160:-0.293675 161:-0.030119 162:0.516624 163:0.166183 164:-0.256369 165:-0.47209 166:-0.485042 167:0.0859847 168:-0.294464 169:0.340262 170:0.428371 171:0.0167672 172:0.134085 173:-0.630608 174:-0.0238126 175:-0.144181 176:-0.406589 177:-0.747404 178:-0.0581688 179:-0.171783 180:-0.381261 181:-0.354401 182:0.59082 183:-0.0250505 184:-0.572124 185:-0.686934 186:-0.0690086 187:-0.576448 188:-0.232052 
2.523836078225459 1.764792764596231 1.002573939665582 6.104547910945393 0.6319035718146115 0.03781436661087251 1:-0.32821 2:-0.0627206 3:-0.978288 4:0.269639 5:0.328902 6:-0.0795736 7:-0.267355 8:0.187545 9:-0.0995749 10:-0.377658 11:-0.0451014 12:-0.16275 13:-0.307419 14:-0.231154 15:-0.170247 16:-0.356756 17:-0.172594 18:-0.259346 19:0.102341 20:0.120976 21:-0.233635 22:-0.312663 23:-0.0231794 24:0.0480492 25:1 26:0.678444 27:0.539178 28:-0.172358 29:-0.256372 30:-0.509754 31:-0.365948 32:0.154768 33:-0.404974 34:-0.0409769 35:-0.0919882 36:-0.138835 37:0.0399067 38:0.086092 39:0.113823 40:0.115015 41:0.0187822 42:-0.037658 43:0.194027 44:0.0899583 45:-0.514368 46:-0.0260436 47:0.264486 48:-0.484096 49:-0.65356 50:-0.199799 51:-0.395949 52:-0.448807 53:0.537687 54:-0.161647 55:0.553979 56:0.487088 57:0.091803 58:-0.690423 59:-0.108034 60:0.0590333 61:0.0331995 62:0.0402607 63:-0.381219 64:0.104149 65:-0.339354 66:0.231761 67:-0.186271 68:0.151334 69:0.239251 70:-0.24522 71:-0.676054 72:0.10209 73:-0.0885827 74:0.206931 75:-0.391082 76:0.165868 77:-0.158287 78:0.114101 79:-0.186809 80:-0.0955514 81:-0.0746712 82:0.101612 83:-0.356674 84:0.144874 85:-0.280748 86:0.290614 87:-0.0520688 88:-0.112821 89:-0.0231892 90:0.166674 91:0.0507847 92:0.0787162 93:-0.413236 94:0.135034 95:0.0766774 96:-0.123316 97:-0.0428698 98:0.27162 99:-0.310431 100:-0.0150711 101:-0.415726 102:0.715423 103:-0.456025 104:-0.283398 105:-0.39893 106:0.224203 107:-0.31183 108:-0.466829 109:-0.221982 110:0.633747 111:0.38548 112:-0.368094 113:-0.265879 114:0.445339 115:0.134819 116:-0.0181533 117:0.413556 118:0.336061 119:0.277008 120:0.0788364 121:-0.106181 122:-0.517186 123:-0.445641 124:-0.181395 125:0.0324008 126:-0.116166 127:-0.167575 128:-0.0163411 129:0.160016 130:0.40095 131:0.58161 132:-0.0522266 133:-0.654091 134:0.0355266 135:-0.0184531 136:-0.534421 137:-0.494801 138:-0.548595 139:-0.353786 140:-0.0178118 141:-0.117429 142:-0.504749 143:0.121153 144:-0.0917778 145:-0.0338606 146:0.670046 147:0.666415 148:-0.636327 149:-0.186037 150:0.415288 151:0.627599 152:-0.327534 153:-0.353238 154:0.297623 155:-0.319235 156:-0.528187 157:-0.205378 158:0.291952 159:0.169685 160:-0.424568 161:-0.627495 162:-0.561995 163:-0.667711 164:-0.408262 165:-0.248695 166:0.0649084 167:0.250019 168:-0.284076 169:0.181474 170:-0.118847 171:0.347869 172:0.284331 173:-0.672161 174:-0.0142262 175:-0.571895 176:-0.451781 177:-0.573584 178:-0.227665 179:-0.437827 180:-0.199652 181:0.1863 182:0.19213 183:0.18518 184:-0.0793444 185:0.376124 186:0.465234 187:0.0807571 188:-0.337381 
0.5074596425600923 2.640075445410315 0 0 1.03092513149733 0 1:-0.385261 2:-0.0694569 3:0.0732578 4:-0.00964469 5:-0.0279147 6:-0.117434 7:0.0244354 8:-0.31546 9:0.134431 10:-0.371399 11:-0.0746 12:0.24214 13:0.521963 14:-0.206413 15:-0.372037 16:0.556117 17:-0.879203 18:-0.565042 19:-0.66255 20:0.263413 21:-0.385333 22:-0.800851 23:-0.321522 24:0.388735 25:0.166846 26:0.705447 27:0.65186 28:-0.274104 29:-0.458201 30:-0.510934 31:-0.48794 32:0.432405 33:-0.550046 34:0.18877 35:-0.0191095 36:-0.296257 37:-0.0179971 38:-0.063017 39:-0.0395379 40:0.238666 41:0.000963499 42:-0.348536 43:-0.300804 44:0.191875 45:-0.0215517 46:0.294762 47:0.418774 48:-0.114969 49:-0.625805 50:-0.485785 51:-0.765203 52:0.0511208 53:0.0569154 54:-0.4652 55:-0.112898 56:0.334982 57:-0.108806 58:-0.171654 59:0.347126 60:-0.30596 61:-0.390508 62:0.192798 63:-0.403451 64:-0.214402 65:0.295051 66:-0.0357061 67:-0.0198697 68:0.603957 69:-0.25106 70:0.529521 71:-0.129389 72:-0.207118 73:-0.108514 74:-0.847707 75:-0.424935 76:0.263178 77:0.11044 78:0.414858 79:0.146542 80:-0.227375 81:-0.249085 82:-0.174272 83:-0.22057 84:0.168462 85:-0.389787 86:0.451322 87:0.0715185 88:-0.0167389 89:-0.239802 90:0.547493 91:0.298753 92:0.0147722 93:-0.104911 94:-0.058512 95:-0.0291758 96:0.0975898 97:-0.0234188 98:-0.104885 99:-0.233994 100:0.45973 101:0.000807819 102:0.0838391 103:-0.47464 104:0.29721 105:-0.358472 106:0.608087 107:-0.0369664 108:-0.542817 109:-0.335121 110:0.945148 111:0.776046 112:-0.149836 113:0.0648956 114:0.194213 115:-0.00163957 116:0.363471 117:-0.308314 118:-0.0803784 119:-0.467996 120:0.0474548 121:-0.446759 122:-0.542753 123:-0.756917 124:0.533619 125:0.267562 126:-0.388554 127:-0.25325 128:0.567657 129:0.572731 130:0.492948 131:0.835612 132:0.374647 133:-0.362923 134:0.212456 135:0.164508 136:-0.183927 137:-0.356424 138:-0.0589152 139:-0.350944 140:-0.120415 141:-0.288887 142:-0.426863 143:-0.288957 144:0.215412 145:-0.15253 146:0.299155 147:0.736536 148:-0.700383 149:-0.489077 150:0.493365 151:0.537012 152:-0.37332 153:-0.458005 154:0.249356 155:-0.785512 156:-0.394822 157:-0.652226 158:0.0822308 159:-0.252412 160:-0.0674119 161:-0.0478782 162:-0.481537 163:-0.395732 164:0.124383 165:0.146908 166:0.019419 167:0.419553 168:0.358752 169:0.386648 170:-0.0347051 171:0.575162 172:0.694137 173:-0.660409 174:-0.0836366 175:-0.616079 176:-0.13648 177:-0.631888 178:-0.0216041 179:-0.582892 180:-0.0967685 181:-0.261507 182:0.239737 183:-0.115996 184:-0.0349584 185:0.780536 186:0.372884 187:0.381596 188:0.198414 
2.030615707644897 0 0 5.29745425939996 1.13700399840314 3.148200882166797 1:-0.239076 2:0.0421148 3:-0.0965013 4:0.0690962 5:0.164073 6:0.369921 7:-0.122676 8:-0.494893 9:-0.440607 10:-0.238157 11:-0.478608 12:7.87101e-05 13:-0.453666 14:-0.410997 15:-0.495218 16:0.364007 17:-0.458273 18:0.407973 19:0.109141 20:-0.309959 21:-0.29582 22:-0.636816 23:-0.476734 24:0.563851 25:-0.615416 26:0.307788 27:-0.280824 28:-0.340376 29:-0.311195 30:0.0855442 31:-0.492162 32:-0.411129 33:-0.895041 34:-0.138495 35:-0.347102 36:-0.383119 37:-0.978688 38:-0.0943532 39:-0.506807 40:-0.0498611 41:-0.123198 42:0.21636 43:0.139479 44:-0.0888281 45:-0.888628 46:-0.640851 47:-0.571243 48:-0.143577 49:-0.408931 50:0.139685 51:-0.529235 52:-0.046664 53:-0.0483502 54:-0.0117423 55:-0.322676 56:0.13255 57:-0.580534 58:0.680672 59:0.0217687 60:-0.758229 61:0.0222947 62:0.078591 63:0.172251 64:0.350135 65:-0.341285 66:0.513859 67:0.407936 68:-0.0706273 69:-0.204238 70:0.650441 71:0.254864 72:-0.0637871 73:-0.205375 74:0.0825025 75:0.348506 76:0.151494 77:-0.778367 78:0.331325 79:0.134332 80:-0.225292 81:-0.266768 82:0.550741 83:0.064425 84:-0.0406254 85:-0.0426444 86:0.565899 87:-0.193243 88:0.149844 89:-0.378959 90:0.627551 91:-0.200638 92:-0.203349 93:-0.777411 94:0.794879 95:-0.68365 96:-0.487226 97:-0.248035 98:0.223275 99:-1 100:0.356076 101:-0.329121 102:0.651409 103:-0.665625 104:-0.136227 105:0.151552 106:0.877399 107:0.216953 108:-0.201693 109:0.0155284 110:0.578271 111:0.147163 112:0.0996345 113:-0.384376 114:-0.146747 115:-0.0622425 116:0.346821 117:-0.00576278 118:0.371906 119:0.236531 120:0.438368 121:0.02744 122:0.334364 123:-0.0575589 124:-0.594594 125:0.265118 126:-0.102285 127:-0.158472 128:0.933725 129:-0.501933 130:0.140243 131:-0.106422 132:-0.217971 133:-1 134:-0.44956 135:-0.910929 136:-0.187605 137:-0.417502 138:0.395635 139:0.136512 140:-0.447521 141:-0.531194 142:0.42803 143:-0.0723183 144:-0.275269 145:-0.546306 146:0.634958 147:0.647827 148:-0.588229 149:-0.418976 150:-0.291273 151:-0.0564693 152:-0.00208034 153:-0.494325 154:-0.0130382 155:-0.291634 156:-0.118067 157:-0.224711 158:0.101799 159:0.305252 160:0.144477 161:-0.280544 162:-0.112539 163:-0.361909 164:0.327865 165:-0.426204 166:0.156713 167:-0.0517568 168:-0.193649 169:-0.304662 170:-0.0776863 171:-0.0794804 172:0.837633 173:-0.828042 174:-0.363018 175:-0.753136 176:-0.0534925 177:0.0906685 178:0.850697 179:0.684142 180:-0.29789 181:-0.517695 182:0.280113 183:-0.274547 184:-0.450972 185:-0.12548 186:0.425129 187:0.184341 188:-0.302805 
0 0.6310906912898387 0 1.030824844187227 0 2.243424667316686 1:-0.130868 2:-0.244849 3:-0.555594 4:-0.00195207 5:0.114299 6:0.71708 7:-0.150803 8:-0.552085 9:-0.134723 10:-0.812928 11:-0.597887 12:0.915449 13:-0.577074 14:-0.021082 15:-0.0483896 16:-0.807502 17:-0.701816 18:-0.127567 19:-0.0734267 20:-0.0270875 21:-0.192891 22:-0.26326 23:-0.0400697 24:0.392614 25:-0.3092 26:-0.133475 27:-0.507683 28:0.0110069 29:0.114402 30:0.356631 31:-0.281257 32:-0.104551 33:-0.653262 34:0.0210729 35:-0.0936489 36:-0.122265 37:-0.730391 38:0.183213 39:-0.565454 40:-0.559473 41:-0.438044 42:-0.0760565 43:-0.267569 44:0.034749 45:-0.682611 46:-0.975445 47:-0.596118 48:0.139002 49:-0.584567 50:0.6784 51:-0.243304 52:-0.570879 53:-0.0828721 54:0.0678599 55:-0.509605 56:-0.204599 57:-0.513488 58:0.713592 59:0.161809 60:-0.49007 61:0.29185 62:0.0157726 63:0.234499 64:0.287611 65:-0.681912 66:0.588521 67:0.139405 68:-0.175733 69:0.0188691 70:0.0476378 71:-0.196908 72:0.376977 73:0.323589 74:-0.433508 75:-0.753933 76:0.385676 77:-0.324354 78:0.476368 79:-0.48604 80:-0.0888025 81:0.319858 82:0.65753 83:0.0641491 84:0.0936501 85:-0.641281 86:0.504829 87:-0.345223 88:-0.265098 89:-0.545062 90:0.366301 91:-0.171892 92:-0.155317 93:-0.312888 94:0.381189 95:0.466409 96:-0.0917633 97:0.200438 98:-0.347913 99:0.0408263 100:0.664471 101:-0.572733 102:0.680126 103:0.152773 104:-0.495952 105:-0.159974 106:0.810028 107:-0.116287 108:-0.61984 109:-0.333478 110:0.367979 111:0.151212 112:-0.239156 113:-0.511669 114:0.229718 115:0.0548722 116:0.346751 117:0.623427 118:0.32678 119:0.262553 120:0.939026 121:-0.284499 122:0.291902 123:0.0354361 124:-0.726349 125:-0.141062 126:0.651251 127:0.134449 128:-0.615674 129:-0.603073 130:-0.0866317 131:-0.499679 132:0.370564 133:-0.527972 134:-0.701883 135:-0.109118 136:0.163969 137:-0.429845 138:0.254906 139:-0.0933808 140:-0.263905 141:-0.657106 142:0.161341 143:0.00257049 144:-0.424418 145:-0.0367463 146:-0.23028 147:-0.205395 148:0.541341 149:-0.527102 150:0.278057 151:0.299354 152:-0.53291 153:0.226979 154:0.340806 155:-0.187837 156:-0.161898 157:-0.361564 158:0.140407 159:0.226098 160:-0.019781 161:-0.17541 162:-0.107457 163:-0.312396 164:0.199115 165:-0.470505 166:0.0629022 167:0.14494 168:-0.82657 169:-0.819393 170:-0.123083 171:-0.566762 172:-0.309021 173:0.0101963 174:-0.463736 175:0.138009 176:0.818519 177:-0.014877 178:0.282497 179:-0.15077 180:0.313016 181:-0.614588 182:0.301212 183:-0.0705399 184:-0.437548 185:-0.587058 186:-0.236411 187:-0.494184 188:0.0469833 
0 1.644048305070172 0.8916541634405462 0 1.263737853868495 3.940052803578513 1:-0.0961777 2:-0.33341 3:0.0774632 4:0.504569 5:0.0482255 6:0.377923 7:-0.292329 8:-0.320942 9:-0.223485 10:-0.321822 11:-0.39752 12:0.459707 13:-0.345666 14:0.00204259 15:-0.397469 16:0.284827 17:-0.433269 18:0.238426 19:-0.0049723 20:-0.134187 21:0.141409 22:-0.167009 23:0.0585765 24:0.579932 25:-0.466452 26:-0.0610714 27:-0.326853 28:-0.0451532 29:-0.554807 30:0.175923 31:-0.122333 32:-0.39455 33:-0.726457 34:-0.379591 35:-0.0940967 36:-0.0936944 37:-0.831835 38:0.245313 39:-0.634194 40:-0.470087 41:-0.622019 42:0.118199 43:-0.081587 44:-0.293326 45:-0.982512 46:0.163267 47:-0.339591 48:-0.778547 49:-0.729 50:0.0326484 51:-0.865614 52:-0.294175 53:-0.261365 54:0.395729 55:-0.31584 56:-0.216994 57:-0.768536 58:0.237575 59:-0.367158 60:-0.537466 61:0.00920383 62:-0.251315 63:0.191191 64:0.362127 65:-0.14351 66:0.293893 67:0.285644 68:0.229287 69:-1 70:0.287453 71:0.318095 72:-0.544803 73:0.0437178 74:0.227206 75:-0.715418 76:0.359116 77:-0.471507 78:0.324152 79:-0.302554 80:0.0101716 81:-0.285485 82:0.754633 83:0.087772 84:-0.464901 85:-0.369243 86:0.0681405 87:0.597926 88:0.341154 89:-0.44447 90:0.594327 91:0.160674 92:-0.260133 93:-0.551218 94:0.636319 95:0.61065 96:-0.677466 97:-0.582353 98:0.844603 99:0.425238 100:-0.568392 101:-0.599233 102:0.486846 103:-0.192159 104:-0.298725 105:-0.0690588 106:0.487459 107:-0.135662 108:-0.439443 109:-0.0660438 110:0.379295 111:0.352731 112:0.470484 113:0.317409 114:0.551773 115:0.363729 116:0.741537 117:-0.422444 118:0.438789 119:0.00852032 120:-0.480894 121:0.176989 122:0.766008 123:0.100837 124:-0.276223 125:-0.496217 126:0.208984 127:-0.269955 128:-0.0662525 129:-0.428333 130:-0.117622 131:-0.1783 132:-0.206156 133:-0.131753 134:-0.0430637 135:-0.342784 136:0.355333 137:-0.607892 138:0.324925 139:0.420593 140:-0.505277 141:-0.0903985 142:-0.0421285 143:0.00525304 144:-0.256972 145:-0.554606 146:0.0435349 147:0.190619 148:-0.124154 149:-0.516773 150:0.199501 151:0.423726 152:-0.44046 153:-0.0887899 154:-0.0821309 155:-0.0808335 156:0.213338 157:-0.407716 158:-0.150773 159:-0.214847 160:0.464318 161:-0.236871 162:0.471535 163:-0.0963888 164:-0.301449 165:-0.410937 166:-0.102157 167:-0.281516 168:-0.425329 169:-0.380374 170:0.189796 171:-0.0291564 172:-0.240738 173:-0.0467196 174:0.0952732 175:-0.270592 176:0.325493 177:-0.240305 178:0.141141 179:0.459889 180:0.370652 181:-0.321617 182:0.357913 183:-0.402478 184:-0.33969 185:-0.0312174 186:0.17265 187:-0.201969 188:-0.286599 
3.542411004669898 0 0 0 0 0 1:-0.175205 2:-0.0667359 3:0.410888 4:0.249867 5:0.289801 6:-0.333513 7:-0.253692 8:-0.151997 9:-0.0149563 10:-0.271366 11:-0.407756 12:0.543087 13:0.113587 14:-0.288038 15:-0.29291 16:0.437581 17:-0.8678 18:-0.145091 19:-0.530503 20:-0.221099 21:-0.343372 22:-0.708312 23:-0.426195 24:0.169384 25:-0.00729679 26:0.0531991 27:0.69218 28:0.512284 29:-0.60682 30:-0.234296 31:-0.608981 32:0.0159867 33:-0.443698 34:0.245071 35:0.214965 36:-0.0349477 37:-0.411682 38:-0.0496419 39:-0.605621 40:-0.294099 41:-0.390373 42:-0.241607 43:-0.189622 44:0.131818 45:-0.796069 46:0.385173 47:-0.107999 48:-0.695684 49:-0.756459 50:-0.148629 51:-0.605947 52:-0.264961 53:0.325822 54:0.0339579 55:0.875054 56:0.32049 57:-0.552391 58:0.081196 59:0.455884 60:-0.0386103 61:0.639666 62:-0.80099 63:0.295583 64:1 65:-0.0387533 66:0.32871 67:0.527255 68:0.612775 69:-0.319369 70:0.609491 71:-0.548497 72:0.0899501 73:0.203465 74:-0.44765 75:-1 76:0.643305 77:0.128498 78:-0.0647741 79:0.435505 80:0.589653 81:-0.364313 82:-0.0925335 83:-0.206112 84:0.063369 85:-0.0643652 86:0.271804 87:-1 88:0.169193 89:-0.648245 90:0.458848 91:-0.549976 92:-0.22716 93:-0.36907 94:0.144119 95:-0.443481 96:0.319252 97:-0.652209 98:0.586006 99:-0.473249 100:-0.30543 101:-0.587522 102:0.379167 103:-0.60618 104:0.251684 105:-0.527191 106:0.515102 107:-0.117863 108:-0.718685 109:-0.417031 110:0.743179 111:0.584764 112:-0.0203802 113:0.027937 114:0.368556 115:0.415811 116:0.379389 117:-0.701918 118:0.521889 119:-0.429314 120:-0.484378 121:-0.636213 122:-0.358412 123:-0.502493 124:0.0990757 125:-0.0551497 126:0.432976 127:0.0623629 128:0.556217 129:-0.136318 130:0.0871708 131:0.636906 132:0.0529663 133:-0.71661 134:0.0376197 135:0.0172428 136:-0.613001 137:0.0389395 138:0.206122 139:-0.278317 140:-0.0402186 141:-0.563409 142:-0.762433 143:-0.787685 144:0.849593 145:0.072195 146:0.849934 147:0.882304 148:-0.316303 149:-0.650545 150:0.763102 151:0.524353 152:-0.717835 153:-0.269891 154:0.109209 155:-0.235815 156:-0.253506 157:-0.658277 158:0.0465075 159:-0.573463 160:-0.158044 161:-0.384788 162:-0.247909 163:-0.23864 164:-0.0541395 165:-0.0879699 166:0.77062 167:0.508215 168:0.0468802 169:-0.159718 170:-0.113159 171:0.187376 172:0.717966 173:-0.855234 174:0.0447521 175:-0.584649 176:-0.503608 177:-0.500445 178:-0.0239939 179:-0.40456 180:-0.413412 181:-0.611863 182:0.00471092 183:-0.527188 184:-0.118669 185:0.659323 186:0.533391 187:0.792329 188:1 
16.35318824628389 3.17427448163229 1.985260993042096 16.78541857145187 2.393667113476403 6.478146847269557 1:-0.133593 2:-0.0718561 3:0.513155 4:0.290282 5:-0.131046 6:-0.351986 7:-0.432083 8:0.345963 9:-0.536413 10:0.250054 11:0.242293 12:-0.502351 13:0.0117959 14:-0.160045 15:0.249146 16:0.445324 17:0.0405374 18:0.207504 19:0.401047 20:-0.241323 21:-0.553978 22:-0.338171 23:-0.412601 24:0.113081 25:-0.534923 26:0.189511 27:-0.32087 28:0.0186179 29:-0.131025 30:0.0280159 31:-0.0233874 32:-0.222919 33:-0.791692 34:-0.172324 35:-0.0386681 36:-0.0722991 37:-0.8114 38:-0.455825 39:-0.577913 40:-0.269978 41:-0.605559 42:-0.242908 43:-0.0445263 44:-0.246506 45:-0.324809 46:0.0615382 47:0.283386 48:-0.101124 49:-0.581997 50:-0.107886 51:-0.4491 52:-0.37975 53:0.414131 54:-0.656337 55:0.0497782 56:0.295932 57:-0.278285 58:-0.17607 59:-0.121993 60:0.0143969 61:-0.0275786 62:0.359811 63:-0.128502 64:-0.00421309 65:-0.140322 66:0.225926 67:-0.0863063 68:-0.192887 69:-0.210199 70:0.652382 71:-0.517227 72:-0.33648 73:0.443111 74:0.352667 75:-0.341613 76:0.203285 77:-0.449397 78:0.253839 79:-0.0486065 80:0.0477883 81:-0.110973 82:0.0860991 83:0.086994 84:-0.385079 85:0.185888 86:0.288217 87:0.389259 88:-0.0956517 89:-0.22021 90:0.348249 91:0.119245 92:-0.0508224 93:-0.483778 94:0.138324 95:-0.00390888 96:-0.278074 97:0.00428794 98:-0.188778 99:0.113555 100:0.504531 101:-0.404882 102:0.354153 103:-0.149481 104:-0.0739332 105:-0.480986 106:0.00369381 107:-0.206141 108:-0.440025 109:-0.295007 110:-0.501664 111:-0.291287 112:-0.0179042 113:-0.673881 114:0.214967 115:-0.482349 116:0.0865844 117:-0.34118 118:0.677686 119:-0.0496201 120:-0.548129 121:-0.00721746 122:-0.607461 123:0.466506 124:0.192594 125:0.124112 126:0.932596 127:0.546332 128:-0.27535 129:-0.318874 130:0.373115 131:0.0339489 132:-0.496671 133:-0.125835 134:-0.562637 135:-0.4099 136:0.170254 137:-0.538281 138:0.113405 139:0.307349 140:-0.42452 141:0.0209433 142:0.0206062 143:0.154061 144:-0.014691 145:-0.631932 146:0.23978 147:0.552613 148:-0.612251 149:-0.367538 150:-0.00100745 151:0.166801 152:-0.304646 153:-0.000497443 154:0.340158 155:-0.293603 156:-0.191013 157:-0.264014 158:0.55045 159:0.450431 160:-0.306022 161:-0.215933 162:-0.474605 163:0.205059 164:-0.0339283 165:0.1474 166:0.423601 167:0.181483 168:-0.302382 169:-0.877132 170:-0.0587178 171:-0.589182 172:-0.501591 173:-0.578611 174:-0.72074 175:-0.474324 176:-0.235396 177:0.215791 178:0.47374 179:0.420892 180:0.133905 181:0.217842 182:0.30472 183:-0.2203 184:-0.296944 185:-0.115196 186:0.292796 187:-0.0236489 188:-0.325976 
3.118834671719382 0 0 0.9844999908091984 0 0 1:-0.206475 2:0.0574299 3:0.257296 4:-0.0665548 5:0.0775206 6:0.626138 7:0.103446 8:-0.902363 9:-0.385421 10:-0.343507 11:-0.32181 12:0.187983 13:-0.624167 14:-0.523927 15:-0.610964 16:0.501004 17:-0.421235 18:0.332773 19:-0.130583 20:-0.391636 21:-0.569329 22:-0.851866 23:-0.595028 24:0.422471 25:0.0379723 26:0.361318 27:0.0248129 28:-0.590165 29:-0.41698 30:-0.400689 31:-0.608929 32:-0.14698 33:-0.733324 34:-0.564315 35:-0.553778 36:0.334918 37:-0.83552 38:-0.298725 39:-0.767346 40:-0.045177 41:-0.193852 42:0.0280969 43:0.184773 44:-0.00865114 45:-0.0706698 46:0.0899117 47:-0.175321 48:-0.352468 49:0.161575 50:-0.105979 51:-0.0385504 52:0.455134 53:-0.462019 54:-0.226725 55:0.588585 56:-0.183448 57:-0.339663 58:0.386719 59:-0.360307 60:-0.659679 61:0.0772209 62:-0.283972 63:-0.292758 64:0.432704 65:-0.248294 66:0.269988 67:0.109313 68:0.15612 69:-0.596165 70:0.336189 71:-0.111986 72:-0.268141 73:-0.536084 74:0.0625111 75:-0.159409 76:-0.0602079 77:-0.688123 78:0.623076 79:-0.257049 80:-0.532164 81:-0.417376 82:-0.0791736 83:-0.299404 84:0.108649 85:-0.0930829 86:-1 87:-0.00325766 88:0.485827 89:-0.504504 90:0.488057 91:0.134588 92:-0.306299 93:-0.245437 94:0.2848 95:-0.166991 96:0.255267 97:0.242302 98:0.170374 99:-0.0392266 100:0.304156 101:0.195043 102:-0.443421 103:-0.295338 104:0.901937 105:0.662107 106:0.563099 107:0.498305 108:0.258058 109:-0.373913 110:0.152659 111:-0.0235651 112:0.238433 113:-0.472774 114:-0.0955698 115:-0.090016 116:0.351675 117:0.0360263 118:0.220798 119:-0.189191 120:-0.17497 121:-0.740355 122:-0.641425 123:-0.682802 124:-0.269644 125:0.219957 126:-0.156118 127:0.0136768 128:0.252327 129:-0.395146 130:0.102648 131:0.0884522 132:0.231439 133:-0.611813 134:-0.652406 135:-0.657927 136:-0.203158 137:-0.627081 138:-0.465534 139:-0.182575 140:0.171992 141:-0.35041 142:0.411306 143:-0.0339396 144:-0.31109 145:-0.162585 146:0.555774 147:0.775957 148:-0.618671 149:-0.241164 150:-0.705352 151:-0.443071 152:0.169825 153:-0.0212329 154:0.177696 155:-0.167932 156:0.0985561 157:-0.0141925 158:0.37797 159:0.0220922 160:0.289806 161:-0.334691 162:-0.67158 163:-0.527965 164:-0.0821232 165:-0.322127 166:0.00691487 167:0.607291 168:-0.337635 169:-0.211683 170:-0.192536 171:-0.106026 172:-0.0270035 173:-0.556311 174:-1 175:-0.701634 176:0.385173 177:-0.0587214 178:0.0858633 179:0.218072 180:0.0174026 181:0.2454 182:0.390665 183:-0.039244 184:0.118155 185:0.0653416 186:0.626064 187:0.25613 188:-0.408735 
4.505783860977401 1.784118596713648 1.009643224958747 5.828790609627389 2.451456203924852 0.4733201521002605 1:-0.331838 2:-0.220732 3:0.151761 4:0.067858 5:-0.116744 6:0.501388 7:-0.04268 8:-0.619252 9:-0.217257 10:-0.0301426 11:-0.0258269 12:-0.0525778 13:-0.436138 14:-0.204767 15:-0.558878 16:-0.116273 17:-0.0881163 18:-0.943575 19:-0.577985 20:1 21:-0.332153 22:0.239799 23:0.18177 24:-0.272878 25:-0.733369 26:-0.0616254 27:-0.604997 28:0.327985 29:0.285055 30:0.308063 31:0.357834 32:-0.219128 33:-0.766213 34:-0.300316 35:-0.355726 36:-0.191749 37:-0.631117 38:0.330461 39:-0.266964 40:-0.416099 41:-0.153005 42:0.277998 43:0.0386755 44:-0.127625 45:-0.560875 46:-0.57828 47:-0.416364 48:0.0547079 49:-0.408925 50:0.284632 51:-0.248602 52:-0.314713 53:-0.000585535 54:-0.288141 55:-0.230159 56:0.318053 57:-0.764592 58:0.0729745 59:-0.241 60:-0.319095 61:0.0266321 62:-0.301954 63:-0.258027 64:0.207552 65:-0.213399 66:0.560924 67:-0.0758289 68:0.40791 69:1 70:-0.545804 71:-0.433077 72:1 73:-0.618966 74:0.722507 75:0.042678 76:-0.356968 77:0.419746 78:0.137186 79:0.393803 80:0.470059 81:-0.530091 82:0.300161 83:-0.154293 84:-0.208139 85:-0.31932 86:0.283288 87:0.508478 88:0.204226 89:-0.379809 90:0.464859 91:0.129299 92:-0.152827 93:-0.37781 94:0.367022 95:-0.0615732 96:0.0477901 97:0.0476451 98:0.244634 99:-0.120052 100:0.692306 101:-0.403376 102:0.58661 103:0.0144156 104:-0.066918 105:-0.5294 106:0.591612 107:-0.100815 108:-0.687978 109:-0.585132 110:0.867865 111:0.571235 112:-0.554637 113:-0.422074 114:-0.255294 115:0.0120512 116:0.121131 117:-0.112788 118:0.288321 119:-0.35301 120:-0.205958 121:-0.730449 122:-0.701739 123:-0.412039 124:0.439429 125:-0.095005 126:-0.0423385 127:-0.354576 128:0.160206 129:-0.0211292 130:0.106723 131:-0.0320398 132:0.0129627 133:-0.111535 134:0.337678 135:-0.205687 136:-0.175305 137:-0.15413 138:0.763672 139:1 140:-0.833711 141:-0.273367 142:0.429672 143:0.443361 144:-0.516095 145:0.0523317 146:0.117363 147:-0.258876 148:0.383383 149:-0.526253 150:0.65666 151:0.499289 152:-0.714091 153:-0.689941 154:-0.0785542 155:-0.594033 156:-0.603268 157:0.219025 158:0.365725 159:-0.181104 160:0.025295 161:-0.309104 162:-0.776239 163:-0.224407 164:0.288546 165:-0.176958 166:0.176036 167:0.0501348 168:-0.187044 169:-0.0359443 170:0.110895 171:0.13153 172:0.472989 173:0.128592 174:0.519565 175:-0.271964 176:-0.158777 177:0.121899 178:0.404165 179:0.825621 180:-0.160977 181:-0.481699 182:0.222302 183:-0.459118 184:-0.618756 185:-0.564122 186:-0.0687113 187:-0.801291 188:-0.139791 
0 0 0 2.664026974344725 0 0 1:0.0341016 2:-0.333515 3:-0.226167 4:-0.0559791 5:0.0157849 6:0.0191118 7:-0.232966 8:-0.409344 9:-0.159398 10:-0.233894 11:-0.133372 12:0.22722 13:-0.204627 14:-0.649322 15:-0.462122 16:0.243441 17:-0.36822 18:-0.463275 19:-0.608721 20:0.473363 21:0.493365 22:-0.383059 23:0.251043 24:0.580439 25:-0.593632 26:-0.215338 27:-0.340666 28:0.0367774 29:-0.208457 30:-0.840194 31:-0.156829 32:0.0649451 33:0.216189 34:-0.492841 35:-0.484941 36:0.156898 37:-0.625028 38:-0.170222 39:-0.409988 40:-0.134357 41:0.0125001 42:-0.118583 43:-0.454874 44:0.03958 45:-0.457442 46:-0.287299 47:0.0495966 48:-0.171717 49:-0.015065 50:0.58343 51:-0.0477267 52:-0.367732 53:0.280083 54:-0.255213 55:0.0664826 56:0.0800327 57:-0.194596 58:0.274389 59:-0.0976725 60:-0.358233 61:0.125462 62:0.418211 63:0.0682374 64:0.0500433 65:0.849134 66:0.308865 67:0.118732 68:0.164067 69:0.212334 70:-0.377074 71:-0.543296 72:0.478643 73:-0.0462682 74:-0.014262 75:-0.518623 76:0.0408201 77:-0.13122 78:0.363012 79:-0.261604 80:0.134908 81:0.152873 82:-0.308232 83:0.0513676 84:-0.0829865 85:0.183243 86:0.21446 87:0.479627 88:0.0492467 89:-0.61349 90:0.210356 91:0.0936074 92:-0.306142 93:0.380333 94:0.137649 95:0.232445 96:0.166536 97:0.536062 98:-0.0378511 99:-0.2088 100:0.184797 101:0.418044 102:-0.0405012 103:-0.234429 104:0.128801 105:0.468424 106:0.523954 107:0.194314 108:-0.0046973 109:-0.351415 110:0.306206 111:0.0890905 112:0.0439458 113:0.276672 114:0.0638028 115:0.324308 116:0.254625 117:0.328399 118:0.239777 119:-0.27867 120:0.0367448 121:0.210951 122:-0.398655 123:-0.532091 124:-0.0338452 125:0.118481 126:-0.350834 127:-0.213594 128:0.423857 129:-0.386502 130:-0.144017 131:-0.12615 132:0.293211 133:-0.271007 134:0.330747 135:0.379684 136:-0.343533 137:-0.267535 138:0.439017 139:0.396918 140:-0.613743 141:-0.180477 142:0.425734 143:0.307533 144:-0.64408 145:-0.207265 146:0.13757 147:-0.0284607 148:0.0592145 149:-0.531261 150:-0.558932 151:-0.0623508 152:0.130171 153:-0.26301 154:0.319972 155:0.113367 156:-0.376003 157:-0.30283 158:-0.0188035 159:-0.388578 160:-0.162818 161:-0.0757684 162:-0.571373 163:-0.360135 164:-0.030199 165:0.388994 166:0.235908 167:0.27654 168:0.0115778 169:0.313666 170:0.0445036 171:-0.0449539 172:0.36383 173:0.370352 174:-0.00704927 175:0.239649 176:0.230292 177:-0.134495 178:0.252598 179:-0.14162 180:-0.306532 181:-0.587707 182:0.311059 183:-0.166472 184:-0.719751 185:-0.454927 186:0.126862 187:-0.547917 188:-0.349986 
2.219620168365815 0 0 9.888312657722047 0 0 1:-0.201789 2:-0.130662 3:0.375667 4:0.061658 5:0.493878 6:-0.221805 7:-0.502745 8:0.0931287 9:-0.671633 10:-0.424163 11:-0.192688 12:-0.224224 13:-0.347728 14:-0.914669 15:-0.73054 16:0.467109 17:-0.286485 18:-0.0786393 19:-0.297036 20:-0.125829 21:0.152297 22:-0.205488 23:-0.0442349 24:-0.194686 25:-0.408404 26:0.0659038 27:-0.373802 28:0.340007 29:0.0669643 30:-0.211197 31:0.0964587 32:0.00196228 33:-0.504977 34:-0.806243 35:-0.119552 36:0.696285 37:-0.415748 38:-0.380764 39:-0.70153 40:-0.00849366 41:0.346009 42:-0.132429 43:-0.117178 44:0.226731 45:0.247335 46:-0.00312341 47:0.128929 48:0.168737 49:0.447477 50:-0.113753 51:-0.0154838 52:0.452251 53:-0.0490337 54:-0.294889 55:-0.0735094 56:0.310269 57:0.129805 58:0.459226 59:-0.264643 60:-0.184365 61:-0.0975404 62:-0.0890445 63:-0.0613219 64:0.0359927 65:0.270516 66:0.349995 67:-0.0526865 68:0.855114 69:-0.307685 70:0.121332 71:-0.223838 72:-0.164315 73:0.218678 74:0.252611 75:0.0548048 76:-0.0803078 77:-0.323055 78:-0.254904 79:0.171958 80:0.155784 81:-0.0375573 82:0.424374 83:0.160961 84:-0.22161 85:0.0992325 86:-0.40621 87:0.0758162 88:0.64659 89:-0.339519 90:0.414714 91:0.0357137 92:0.0171719 93:0.0372031 94:0.060411 95:0.169783 96:0.372451 97:-0.0897275 98:-0.193237 99:-0.170378 100:0.593339 101:0.116386 102:-0.322659 103:-0.212305 104:0.588589 105:0.617384 106:0.581856 107:0.431956 108:0.319437 109:-0.133744 110:-0.227696 111:0.260279 112:0.381268 113:-0.390361 114:0.179119 115:0.366437 116:-0.159984 117:-0.478223 118:0.0945851 119:-0.381444 120:-0.0883827 121:-0.25819 122:-0.416748 123:-0.264958 124:0.0977893 125:0.316006 126:0.125637 127:-0.0353351 128:0.274095 129:-0.632607 130:-0.322748 131:-0.329626 132:-0.0119739 133:0.690366 134:-0.0394237 135:0.0343388 136:0.302134 137:0.0927235 138:0.630025 139:0.772162 140:-0.337421 141:-0.501983 142:0.32728 143:0.153531 144:-0.437664 145:0.0220612 146:0.0375115 147:0.309467 148:-0.371189 149:-0.531055 150:-0.602482 151:-0.22643 152:0.663778 153:0.400561 154:0.252768 155:0.00241843 156:-0.0123895 157:-0.45193 158:0.104903 159:-0.497749 160:-0.0904753 161:-0.00138335 162:-0.288346 163:-0.0997977 164:0.0847797 165:-0.0434783 166:0.00676322 167:0.227953 168:-0.235041 169:-0.30265 170:-0.344993 171:-0.31963 172:0.0613967 173:0.340318 174:0.0559307 175:0.124325 176:0.161539 177:0.265011 178:-0.656582 179:0.444998 180:0.705154 181:-0.579715 182:0.25382 183:-0.522646 184:-0.397515 185:0.0858255 186:0.161739 187:-0.203742 188:-0.30245 
4.712280428045451 0 0 1.607758770272548 0 0 1:-0.123455 2:-0.453714 3:-0.305389 4:0.703868 5:-0.0719101 6:0.0963335 7:-0.561187 8:-0.396622 9:-0.68623 10:-0.30219 11:-0.38201 12:-0.0424564 13:-0.947978 14:-0.00430308 15:-0.563087 16:-0.558682 17:-0.565646 18:0.164307 19:-0.358828 20:-0.0306207 21:-0.341628 22:-0.652503 23:0.0397207 24:0.312053 25:-0.441375 26:-0.612245 27:-0.51151 28:0.383956 29:0.0930981 30:0.30476 31:0.222686 32:0.312253 33:-0.145302 34:-0.41151 35:-0.197541 36:0.724518 37:-0.249448 38:-0.395339 39:-0.646089 40:-0.0740743 41:-0.0959428 42:-0.278045 43:-0.454107 44:0.0668566 45:-0.582241 46:-0.0529399 47:-0.117887 48:-0.18971 49:-0.290836 50:0.15797 51:-0.230438 52:0.314177 53:-0.391943 54:-0.36432 55:-0.514313 56:0.2931 57:0.0114211 58:0.304245 59:0.00569107 60:-0.205025 61:-0.37153 62:0.133348 63:-0.361806 64:0.203146 65:-0.0330401 66:0.304131 67:-0.211112 68:0.130159 69:-0.501042 70:0.67131 71:0.379896 72:-0.301985 73:0.269146 74:0.418492 75:0.363696 76:0.342433 77:0.170117 78:-0.199941 79:-0.0667173 80:0.93294 81:-0.170252 82:0.0376813 83:0.356283 84:0.366148 85:0.0184176 86:-0.257581 87:0.608208 88:0.95177 89:-0.386978 90:0.26611 91:0.00614872 92:0.054007 93:-0.0178479 94:-0.0765224 95:0.25734 96:0.503096 97:-0.0206303 98:0.13981 99:0.00482247 100:0.465408 101:-0.351112 102:0.0109113 103:0.0605469 104:0.737544 105:0.451 106:0.301125 107:0.257039 108:0.156617 109:-0.36976 110:0.398912 111:0.300026 112:0.14928 113:-0.36632 114:0.474281 115:0.435814 116:-0.195769 117:-0.722246 118:0.336981 119:-0.339748 120:0.0337462 121:0.38314 122:0.5138 123:-0.0983873 124:0.000909666 125:0.110317 126:0.0284332 127:0.0675072 128:0.237386 129:-0.528483 130:-0.771632 131:-0.492371 132:0.700701 133:-0.327719 134:0.148065 135:0.101219 136:-0.088907 137:-0.0397385 138:0.597408 139:0.696464 140:0.157477 141:-0.190501 142:0.591869 143:0.111829 144:-0.615904 145:-0.70875 146:0.521353 147:0.084839 148:-0.661095 149:-0.514462 150:-0.526974 151:-0.0202803 152:0.335993 153:-0.026397 154:0.322265 155:0.0312764 156:-0.0107388 157:-0.482439 158:0.437655 159:-0.525725 160:-0.36332 161:-0.198899 162:0.294373 163:-0.00784277 164:0.250201 165:-0.14311 166:-0.0396263 167:0.189968 168:-0.202087 169:-0.324145 170:-0.801322 171:-0.505762 172:0.621437 173:0.474513 174:0.0176408 175:0.292229 176:0.730454 177:0.120472 178:0.430746 179:0.328905 180:0.523882 181:-0.48155 182:0.0908985 183:-0.503908 184:-0.268919 185:-0.855735 186:0.21013 187:-0.345116 188:-0.712218 
0 0 0 1.729696239967322 0 0 1:-0.00751758 2:-0.23282 3:-0.478475 4:0.291711 5:-0.556708 6:-0.0477944 7:-0.942667 8:-0.413499 9:-0.712057 10:-0.307791 11:-0.53972 12:0.378647 13:-0.462962 14:0.00234233 15:-0.243552 16:-0.330033 17:-0.0852218 18:-0.229884 19:-0.439963 20:0.488948 21:0.020968 22:-0.170733 23:0.09595 24:0.29457 25:-0.110536 26:0.187345 27:-0.154444 28:-0.0881039 29:-0.0255059 30:-0.0200787 31:0.245119 32:0.459343 33:-0.606781 34:-0.637926 35:-0.314645 36:0.374246 37:-0.966362 38:-0.259993 39:-0.590312 40:-0.286015 41:0.166412 42:-0.435784 43:0.341348 44:0.707375 45:0.195626 46:-0.410212 47:0.153547 48:0.281538 49:0.255322 50:0.71899 51:0.419989 52:0.416575 53:0.100259 54:-0.15032 55:0.0835012 56:0.265145 57:-0.548763 58:0.306001 59:0.235464 60:-0.519762 61:-0.149804 62:0.164588 63:0.0689879 64:0.0986234 65:-0.342179 66:0.163475 67:0.0297807 68:-0.19445 69:-0.33653 70:-0.0460174 71:-0.644639 72:0.127979 73:0.124189 74:0.133261 75:-0.379825 76:0.0736325 77:-0.245399 78:0.387596 79:0.0984859 80:-0.0525623 81:0.0713583 82:-0.118804 83:0.166429 84:0.137011 85:-0.585303 86:0.103356 87:-0.0524997 88:-0.0655219 89:-0.484971 90:0.190041 91:-0.35075 92:-0.305852 93:-0.182965 94:-0.00339426 95:0.0596432 96:0.556923 97:0.369645 98:-0.415403 99:-0.459854 100:0.888653 101:0.158587 102:0.36478 103:-0.345498 104:0.278116 105:0.665135 106:0.734611 107:0.470784 108:0.515293 109:-0.00535398 110:0.254784 111:0.255488 112:-0.122496 113:0.495958 114:0.363703 115:0.84513 116:0.261104 117:0.459847 118:0.204194 119:-0.0390433 120:0.585058 121:-0.379312 122:0.094483 123:-0.404065 124:0.0692336 125:0.251176 126:0.330384 127:0.508129 128:0.18592 129:-0.133211 130:0.132088 131:0.0997396 132:0.306811 133:-0.547594 134:-0.0476508 135:-0.0694539 136:-0.420193 137:0.00746735 138:0.0693033 139:0.600122 140:0.0642791 141:-0.431458 142:0.295796 143:0.0367529 144:-0.298372 145:-0.367621 146:0.0294063 147:-0.220904 148:0.261802 149:-0.469125 150:-0.645051 151:-0.270114 152:0.770705 153:0.15957 154:0.236822 155:0.445316 156:-0.149235 157:-0.305939 158:-0.502925 159:-0.651413 160:0.0234522 161:-0.445666 162:-0.590108 163:-0.427562 164:0.00242644 165:-0.0308828 166:0.197251 167:0.841993 168:0.268582 169:-0.567163 170:-0.305093 171:-0.516785 172:-0.266617 173:-0.0704878 174:-0.0202369 175:-0.263565 176:0.124899 177:0.146504 178:0.168308 179:0.387228 180:0.255286 181:-0.268433 182:0.0415239 183:-0.496116 184:-0.069867 185:-0.276841 186:-0.150907 187:-0.52643 188:-0.119351 
0 0 0 0.5262013864920124 0 0 1:-0.28164 2:-0.300318 3:-0.305693 4:0.4687 5:0.527335 6:0.277719 7:0.0648141 8:0.0670427 9:-0.300548 10:-0.538434 11:-0.590026 12:0.715991 13:-0.483514 14:-0.130474 15:-0.458018 16:-0.173662 17:-0.308181 18:0.357657 19:0.123083 20:-0.519402 21:-0.462316 22:-0.346454 23:-0.150792 24:-0.0574706 25:0.119445 26:0.440801 27:0.359032 28:0.242957 29:0.501168 30:-0.296781 31:0.1164 32:0.103923 33:-0.086207 34:-0.0830823 35:0.141296 36:0.283361 37:-0.0804214 38:-0.0919928 39:-0.569033 40:0.190632 41:-0.634325 42:-0.252545 43:-0.635444 44:-0.110909 45:-0.523062 46:-0.204053 47:0.181153 48:-0.220601 49:-0.4663 50:0.136824 51:-0.742011 52:-0.0671081 53:-0.254913 54:-0.17883 55:0.00211067 56:0.156084 57:-0.379769 58:-0.158027 59:-0.0850508 60:-0.176623 61:0.670945 62:-1 63:0.0735382 64:0.493799 65:0.056288 66:0.542383 67:0.246843 68:-0.12833 69:-0.522029 70:0.734971 71:0.195962 72:-0.582816 73:0.100968 74:0.0476968 75:-0.241186 76:0.0472738 77:-0.642197 78:0.227323 79:-0.303244 80:-0.235077 81:0.222992 82:0.421708 83:-0.507191 84:-0.451823 85:-0.34986 86:0.503209 87:0.215843 88:-0.119389 89:-0.263908 90:0.300876 91:-0.115245 92:-0.146453 93:-0.338434 94:0.686194 95:0.183185 96:-0.182465 97:-0.490134 98:0.30965 99:0.0503642 100:-0.0704496 101:-0.230924 102:0.561184 103:-0.248557 104:-0.199784 105:-0.560347 106:0.0171114 107:-0.242752 108:-0.610881 109:-0.0639118 110:0.462128 111:0.507655 112:0.524055 113:0.316577 114:0.865127 115:0.850787 116:0.0566796 117:-0.580435 118:0.189326 119:-0.516857 120:-0.276007 121:-0.17613 122:0.614436 123:-0.186571 124:-0.515869 125:-0.119765 126:0.518206 127:-0.0331204 128:0.139472 129:-0.459143 130:0.120687 131:-0.39277 132:-0.0249849 133:-0.504008 134:0.132296 135:-0.404423 136:-0.238004 137:-0.621493 138:-0.686625 139:-0.256874 140:0.248472 141:-0.188007 142:-0.31448 143:-0.223918 144:0.599207 145:-0.221989 146:0.632867 147:0.690013 148:-0.642944 149:-0.268069 150:0.465882 151:0.617206 152:-0.390069 153:0.126145 154:-0.0835612 155:0.230197 156:0.318595 157:-0.649728 158:-0.102437 159:-1 160:-0.344586 161:-0.216104 162:0.090919 163:0.0466217 164:-0.23207 165:-0.340629 166:-0.369412 167:0.167348 168:-0.41241 169:-0.414864 170:-0.0836043 171:-0.360015 172:0.282024 173:-0.291472 174:0.37428 175:-0.162886 176:-0.279266 177:-0.327852 178:0.173766 179:-0.0472243 180:-0.224143 181:0.0843884 182:-0.254225 183:-0.129638 184:0.554705 185:0.36212 186:0.0774446 187:0.307618 188:0.458029 
2.497102130554147 0 0 25.34931808204624 0 0 1:-0.144698 2:-0.269296 3:-0.45926 4:0.476288 5:0.27374 6:-0.0768683 7:0.049361 8:0.4311 9:-0.171051 10:-0.126465 11:-0.104951 12:0.00850601 13:-0.0995669 14:-0.47486 15:0.00914647 16:-0.0459589 17:0.116958 18:0.173717 19:0.30386 20:-0.0266274 21:-0.339134 22:-0.122361 23:-0.253996 24:-0.011627 25:0.00507064 26:0.582667 27:0.0125459 28:-0.129491 29:0.0230362 30:-0.0720283 31:0.234199 32:-0.0913001 33:-0.0576603 34:-0.478826 35:-0.0336569 36:0.334228 37:-0.71728 38:-0.360504 39:-0.627553 40:-0.150303 41:-0.697476 42:-0.292488 43:-0.33627 44:-0.07694 45:-0.260788 46:-0.00952459 47:0.464931 48:-0.178236 49:-0.380647 50:0.036446 51:-0.397604 52:-0.116185 53:0.186437 54:-0.10633 55:0.284682 56:0.41484 57:0.206908 58:-0.441416 59:-0.0768747 60:0.241133 61:0.482433 62:-0.449567 63:-0.057896 64:0.497269 65:-0.674819 66:0.480166 67:-0.0378618 68:-0.128355 69:-0.495955 70:-0.106041 71:-0.720039 72:-0.0706819 73:-0.24042 74:0.166531 75:-0.349244 76:0.069124 77:-0.465039 78:0.406221 79:-0.114368 80:-0.195391 81:0.0894608 82:0.261819 83:-0.0297115 84:-0.168373 85:-0.125286 86:-0.0631879 87:0.106712 88:0.272866 89:0.005022 90:0.331515 91:0.0798035 92:0.0157166 93:-0.198431 94:0.251702 95:-0.016765 96:0.084886 97:0.256777 98:0.0726656 99:-0.358727 100:0.457998 101:0.0220147 102:0.4599 103:-0.396894 104:0.19004 105:-0.348578 106:-0.715929 107:-0.315807 108:-0.135211 109:-0.387176 110:-0.0601074 111:-0.212228 112:0.0759412 113:-0.402998 114:0.577912 115:0.169794 116:-0.399726 117:-0.27944 118:0.579467 119:-0.322928 120:-0.546283 121:-0.32937 122:-0.684749 123:-0.0139791 124:0.144038 125:0.435778 126:0.425808 127:0.401764 128:-0.203518 129:-0.568808 130:0.0884094 131:-0.34175 132:-0.381295 133:-0.649349 134:0.0551971 135:-0.488909 136:-0.0670451 137:-0.375492 138:0.174987 139:-0.0620298 140:-0.202492 141:-0.270691 142:-0.0578682 143:-0.00277838 144:0.174911 145:-0.250906 146:0.504899 147:0.53375 148:-0.794791 149:-0.00671248 150:0.223149 151:0.323936 152:-0.159179 153:0.152496 154:0.271694 155:0.235003 156:-0.0321973 157:-0.597407 158:0.164197 159:-0.291291 160:-0.283557 161:-0.261204 162:-0.354269 163:0.0416218 164:-0.190076 165:0.159337 166:0.600619 167:0.431776 168:-0.0790274 169:-0.719262 170:-0.202747 171:-0.696226 172:-0.325437 173:-0.499805 174:0.609771 175:-0.263686 176:-0.580028 177:-0.518117 178:-0.0955256 179:0.180973 180:-0.0304545 181:-0.391522 182:0.0167825 183:-0.0948107 184:0.0656212 185:-0.0075741 186:0.346931 187:0.0575074 188:-0.201839 
0 2.143642902310965 0.1224905205249998 8.700284450623469 1.324272408643411 3.442034570994971 1:-0.12669 2:-0.393851 3:-0.705243 4:0.402666 5:0.232351 6:0.64005 7:-0.0769904 8:-0.327615 9:-0.578473 10:-0.705374 11:-0.341665 12:0.270439 13:0.101771 14:0.199955 15:0.117137 16:-0.0866255 17:-0.175704 18:-0.390061 19:-0.378151 20:0.55842 21:-0.217333 22:-0.321341 23:-0.296893 24:0.020652 25:-0.476169 26:0.161106 27:-0.415795 28:-0.146845 29:-0.852329 30:-0.138502 31:-0.618485 32:-0.347222 33:-0.542591 34:0.368091 35:0.237335 36:-0.704073 37:-0.776061 38:-0.152091 39:-0.57747 40:-0.154853 41:-0.340993 42:0.179955 43:-0.0589338 44:0.0847274 45:-0.684963 46:-1 47:-0.826277 48:0.265132 49:-0.449888 50:0.400971 51:-0.432056 52:-0.196831 53:0.0885851 54:-0.0690822 55:-0.727158 56:0.251753 57:-0.314745 58:0.251181 59:-0.340922 60:-0.255434 61:-0.0964831 62:0.0285443 63:0.681928 64:0.213821 65:-0.402175 66:0.630335 67:0.224261 68:-0.241767 69:-0.362051 70:0.287886 71:0.390959 72:0.252415 73:-0.597535 74:0.792726 75:0.130065 76:-0.413639 77:-0.189933 78:0.674879 79:0.210214 80:-0.264018 81:0.218832 82:0.652272 83:-0.113322 84:-0.407578 85:-0.671753 86:0.440964 87:0.272118 88:-0.331856 89:-0.473252 90:0.293541 91:0.55252 92:-0.181386 93:-0.27093 94:0.481848 95:0.332671 96:-0.0225085 97:0.133134 98:0.520143 99:0.142263 100:0.26109 101:-0.518546 102:0.4413 103:-0.115406 104:0.0252237 105:-0.338876 106:0.618022 107:-0.149717 108:-0.60585 109:-0.454985 110:0.088656 111:0.288948 112:0.15972 113:-0.495823 114:0.296711 115:-0.250695 116:0.1848 117:0.0380567 118:0.0958006 119:-0.359545 120:0.717616 121:-0.314503 122:0.635182 123:0.127435 124:-0.771944 125:-0.32705 126:0.529826 127:0.0944017 128:-0.147184 129:-0.303438 130:-0.0991922 131:0.0161277 132:0.186715 133:-0.366857 134:0.326712 135:0.0394616 136:-0.299725 137:-0.968733 138:0.241443 139:-0.117267 140:-0.959459 141:-0.613898 142:0.101544 143:-0.224276 144:-0.234515 145:-0.405724 146:-0.379858 147:-0.194829 148:0.515553 149:-0.79669 150:0.391986 151:0.405791 152:-0.56462 153:-0.61711 154:0.0348473 155:-0.588216 156:0.0467814 157:-0.411404 158:0.299762 159:0.0337863 160:-0.0805787 161:-0.36057 162:0.154209 163:0.167602 164:0.102465 165:-0.598925 166:0.420183 167:0.0343506 168:-0.591395 169:-0.822824 170:-0.160316 171:-0.218324 172:-0.269115 173:-0.220411 174:0.13065 175:-0.120772 176:0.29631 177:-0.605457 178:0.285807 179:-0.290103 180:-0.26629 181:-0.745972 182:0.47215 183:-0.220592 184:-0.426322 185:0.0921614 186:-0.437945 187:-0.348719 188:0.0635263 
0.2954590034013819 2.653059219489704 0 10.63316975542371 0 0 1:-0.325534 2:-0.0436694 3:-0.198978 4:-0.0802536 5:0.251017 6:-0.43282 7:-0.0259977 8:-0.00698251 9:0.219102 10:-0.224274 11:0.128988 12:0.201024 13:0.272558 14:-0.370148 15:-0.371859 16:0.663606 17:-0.579764 18:0.0764052 19:-0.302507 20:-0.322018 21:-0.17862 22:-0.832847 23:-0.23478 24:0.445965 25:0.263075 26:0.720536 27:0.641473 28:-0.238802 29:-0.0146244 30:-0.746038 31:-0.0710461 32:0.340081 33:-0.498436 34:0.190294 35:-0.107373 36:-0.352689 37:0.185692 38:0.127066 39:-0.129797 40:0.240493 41:-0.495047 42:-0.261838 43:-0.46077 44:0.184941 45:-0.465529 46:-0.00911011 47:0.339569 48:-0.260816 49:-0.430845 50:-0.140869 51:-0.600049 52:0.0391099 53:0.0510354 54:-0.594103 55:0.035172 56:0.443735 57:-0.229647 58:-0.154283 59:0.118998 60:-0.0678522 61:0.109852 62:0.087237 63:-0.520229 64:0.10843 65:0.49675 66:0.194826 67:-0.206762 68:0.754897 69:-0.129144 70:0.602144 71:-0.13598 72:-0.254829 73:0.186584 74:-0.782475 75:-0.372142 76:0.575818 77:-0.246052 78:0.39416 79:0.166289 80:-0.0610291 81:-0.370064 82:-0.263667 83:-0.254788 84:0.125593 85:-0.197806 86:0.527852 87:-0.130404 88:0.0603975 89:-0.201422 90:0.411915 91:0.265875 92:-0.0912456 93:-0.195104 94:0.107473 95:0.290473 96:0.105561 97:-0.318097 98:0.460366 99:-0.160705 100:-0.0336346 101:-0.352663 102:0.12114 103:-0.419673 104:0.134436 105:0.300141 106:0.298032 107:-0.209383 108:-0.414433 109:0.0158269 110:0.48699 111:0.482532 112:0.0938681 113:-0.309386 114:0.14717 115:0.251973 116:-0.0626467 117:-0.479319 118:0.0842106 119:-0.588205 120:-0.023051 121:-0.83629 122:-0.0788766 123:-0.699 124:0.140475 125:0.203675 126:-0.401055 127:-0.104047 128:0.678682 129:0.212111 130:0.421291 131:0.606335 132:0.0128547 133:-0.314052 134:0.192858 135:0.0737532 136:-0.224783 137:-0.384621 138:-0.30775 139:-0.246141 140:0.149444 141:-0.0230603 142:-0.37594 143:0.155005 144:0.468288 145:-0.0146661 146:0.785215 147:0.730567 148:-0.756001 149:-0.419944 150:-0.13741 151:0.568843 152:-0.205493 153:-0.407076 154:0.0844872 155:-0.296655 156:-0.280568 157:-0.362659 158:0.194815 159:-0.55088 160:-0.403858 161:-0.263987 162:0.0278488 163:-0.274136 164:-0.174486 165:0.135244 166:-0.130536 167:0.511312 168:0.0837769 169:0.181833 170:0.174273 171:0.309289 172:0.716238 173:-0.36011 174:-0.051974 175:-0.519786 176:-0.00755136 177:-0.19688 178:-0.238457 179:-0.423644 180:-0.141999 181:0.267638 182:0.390297 183:0.139957 184:0.398305 185:0.38193 186:0.221078 187:0.10782 188:0.306485 
3.815711160066098 0.2962001345285164 0.9220330647190884 0 0 0 1:-0.0280113 2:-0.274976 3:0.0850231 4:-0.00811285 5:-0.132532 6:0.0684872 7:-0.320156 8:-0.422222 9:0.0211762 10:-0.0736841 11:-0.0155095 12:0.160791 13:-0.314372 14:-0.141041 15:-0.501724 16:0.179826 17:-0.494156 18:-0.536138 19:-0.202664 20:0.576569 21:0.276142 22:-0.183802 23:0.217812 24:0.739217 25:-0.0932334 26:-0.00324389 27:0.0801167 28:0.279865 29:-0.350081 30:0.142485 31:-0.145647 32:-0.237334 33:-0.476247 34:-0.495835 35:-0.145453 36:0.0245528 37:-0.0737107 38:0.00393375 39:-0.551053 40:-0.295647 41:-0.211933 42:0.0185909 43:0.0397787 44:-0.381167 45:-0.401721 46:-0.0813949 47:0.100544 48:-0.369573 49:-0.408339 50:-0.3214 51:-0.776682 52:-0.0927111 53:-0.477774 54:0.0871309 55:0.445977 56:-0.221928 57:0.0720327 58:0.0809094 59:-0.000666926 60:-0.286687 61:-0.0690653 62:0.18914 63:0.0304655 64:-0.0916776 65:-0.182697 66:0.159188 67:-0.0316001 68:0.140823 69:-0.558786 70:0.071811 71:-0.310847 72:0.196398 73:0.224548 74:0.0286728 75:-0.256845 76:0.275276 77:-0.0437345 78:0.2579 79:-0.0213034 80:0.00971563 81:0.0533934 82:0.36765 83:-0.046639 84:0.048819 85:-0.221784 86:-0.232425 87:-0.00932386 88:0.320152 89:-0.641234 90:0.711568 91:0.22498 92:-0.410537 93:-0.390307 94:0.304177 95:0.456404 96:-0.146483 97:-0.27627 98:0.356107 99:0.0203118 100:0.0496483 101:-0.466811 102:0.465656 103:-0.376549 104:0.0893535 105:0.272808 106:-0.2148 107:-0.185202 108:-0.326075 109:-0.138514 110:0.691558 111:0.38853 112:0.0790067 113:-0.0537401 114:0.569682 115:0.403315 116:0.418644 117:-0.151754 118:-0.0992399 119:0.00967243 120:-0.0942039 121:0.106265 122:-0.124979 123:-0.522633 124:0.320574 125:0.0348599 126:0.28964 127:-0.302832 128:0.0804526 129:-0.295485 130:0.527444 131:0.125514 132:-0.636203 133:0.582464 134:-0.478462 135:0.296208 136:1 137:-0.264183 138:0.451161 139:0.376995 140:-0.427351 141:0.0369925 142:-0.142262 143:0.0612097 144:-0.10041 145:-0.307767 146:0.366318 147:0.377072 148:-0.327666 149:-0.138187 150:-0.412561 151:0.494753 152:-0.255776 153:0.166073 154:0.0825507 155:-0.0758291 156:-0.323038 157:-0.411332 158:0.0141665 159:-0.247102 160:0.28131 161:-0.375153 162:-0.182763 163:-0.545176 164:0.140209 165:0.108726 166:0.00833632 167:0.186411 168:-0.10008 169:-0.252476 170:0.165795 171:0.183923 172:-0.183425 173:0.290816 174:-0.382178 175:-0.00487012 176:1 177:0.385457 178:-0.901368 179:-0.0907424 180:1 181:-0.488002 182:-0.0779956 183:-0.333314 184:-0.35683 185:0.120105 186:0.511632 187:-0.0975693 188:-0.357955 
3.251723986640624 0 0 6.733237948473104 0 0 1:-0.147732 2:-0.243093 3:-0.184063 4:0.254239 5:-0.103933 6:-0.354296 7:-0.56722 8:0.016093 9:-0.220835 10:-0.378626 11:-0.0163894 12:0.38753 13:-0.55322 14:-0.435158 15:-0.586562 16:0.159236 17:-0.109564 18:-0.201663 19:-0.26609 20:0.428572 21:0.164747 22:-0.200472 23:-0.037135 24:-0.332201 25:-0.485539 26:0.133545 27:-0.307053 28:-0.0616486 29:-0.537309 30:-0.400073 31:-0.218467 32:-0.0694558 33:-0.507763 34:-0.746446 35:-0.454142 36:0.847703 37:0.213121 38:0.0291921 39:-0.432733 40:0.273289 41:0.476861 42:-0.377941 43:0.195488 44:0.998507 45:0.327725 46:0.161897 47:0.643314 48:0.676722 49:0.00670619 50:0.444879 51:0.3629 52:0.320974 53:0.107575 54:-0.57919 55:-0.096063 56:0.15703 57:-0.416298 58:0.267632 59:-0.255787 60:-0.445251 61:0.0240682 62:0.370639 63:-0.430487 64:-0.0987159 65:-0.204262 66:0.0690121 67:-0.0796521 68:0.134682 69:-0.458538 70:0.466955 71:0.660661 72:0.0117005 73:-0.459406 74:0.102578 75:0.383501 76:-0.374245 77:-0.122862 78:0.15215 79:0.0691871 80:-0.018877 81:-0.497788 82:-0.0482461 83:-0.236243 84:-0.173142 85:0.00908911 86:0.221558 87:0.682037 88:0.518962 89:-0.154966 90:0.341138 91:0.118749 92:0.132206 93:0.429223 94:-0.71875 95:0.19122 96:1 97:-0.077941 98:-0.251955 99:-0.0402706 100:0.753388 101:-0.0373794 102:0.108061 103:-0.155124 104:0.485262 105:0.756999 106:0.484323 107:0.799945 108:1 109:-0.545467 110:-0.313149 111:-0.483147 112:0.153152 113:0.0664891 114:0.572872 115:0.357414 116:0.244837 117:-0.296509 118:-0.0214866 119:-0.207983 120:0.0439555 121:0.448826 122:0.357229 123:-0.513737 124:-0.122522 125:0.297178 126:-0.724052 127:-0.130669 128:0.0518619 129:-0.297172 130:-0.398578 131:0.140026 132:-0.0768241 133:-0.148474 134:0.465048 135:-0.0421541 136:-0.27236 137:0.513863 138:0.400952 139:0.818715 140:-0.172165 141:-0.173789 142:0.309248 143:0.188689 144:-0.196841 145:-0.214711 146:0.233184 147:0.495724 148:-0.531048 149:-0.617022 150:-0.612338 151:-1 152:0.425622 153:-0.0107482 154:0.596816 155:0.643639 156:-0.241482 157:-0.569044 158:0.0753143 159:-0.365376 160:0.0798719 161:0.75707 162:-0.310296 163:-0.393974 164:0.0819267 165:-0.103796 166:-0.228521 167:0.338596 168:-0.189533 169:0.708005 170:-0.106939 171:0.0473552 172:0.0276473 173:-0.0831641 174:0.00241704 175:-0.271876 176:-0.0957501 177:0.343805 178:0.110488 179:0.544884 180:0.315661 181:-0.481451 182:-0.357155 183:-0.527228 184:0.0514822 185:-0.673352 186:0.412476 187:-0.0868692 188:-0.631613 
0 0 0 3.92133051383001 0 0 1:-0.122595 2:-0.436685 3:0.407379 4:0.354809 5:-0.328556 6:-1 7:-0.98379 8:-0.217461 9:-0.598735 10:-0.327689 11:-0.342501 12:0.094626 13:-0.197302 14:0.233737 15:0.288015 16:-0.305539 17:-0.759916 18:-0.168799 19:-0.891647 20:0.241136 21:-0.644059 22:-0.32443 23:-0.219301 24:-0.420718 25:-0.654728 26:-0.302457 27:-0.609545 28:0.488807 29:-0.168009 30:-0.257101 31:0.413016 32:0.119076 33:-0.500535 34:0.175752 35:0.0304102 36:-0.0838196 37:-0.430343 38:-1 39:-0.857631 40:0.524791 41:0.222814 42:-0.0331318 43:0.0429613 44:0.774527 45:-0.0817819 46:0.0775164 47:-0.129508 48:0.0020733 49:-0.350398 50:-0.393208 51:-0.24696 52:0.101577 53:0.285294 54:-0.503307 55:-0.0254813 56:0.463333 57:-0.0210707 58:0.168555 59:-0.442891 60:-0.230417 61:0.252955 62:-0.0981058 63:0.2478 64:0.228888 65:-0.488878 66:0.656447 67:0.000499171 68:-0.226592 69:-0.444765 70:0.276656 71:-0.301313 72:0.0670945 73:-0.408851 74:0.174886 75:-0.286659 76:-0.269565 77:-0.113723 78:-0.342136 79:-0.0341997 80:0.655523 81:-0.361564 82:0.541211 83:-0.127506 84:-0.0569527 85:-0.346926 86:0.167557 87:0.211588 88:-0.0814999 89:-0.150803 90:0.174197 91:0.0739634 92:0.439469 93:0.225431 94:0.184568 95:0.0566129 96:0.194549 97:0.0163611 98:0.35648 99:0.237875 100:0.0763883 101:-0.189277 102:0.341214 103:-0.207653 104:0.136171 105:0.717716 106:0.7471 107:0.273615 108:0.0346756 109:-0.216753 110:0.241181 111:0.365674 112:0.542122 113:-0.254343 114:0.270821 115:-0.0379901 116:0.0475171 117:-0.559984 118:0.275472 119:-0.593973 120:-0.0833745 121:-0.503969 122:0.414676 123:0.139453 124:-0.468829 125:0.730373 126:0.416525 127:1 128:0.278507 129:-0.462935 130:0.427089 131:0.212116 132:-0.437098 133:-0.383102 134:0.690546 135:0.129961 136:-0.541864 137:0.38648 138:0.569837 139:0.871315 140:0.00954735 141:-0.429846 142:0.101281 143:-0.412236 144:-0.463876 145:-0.224145 146:-0.342182 147:-0.421953 148:0.539665 149:-0.647606 150:-0.736814 151:-0.00406058 152:0.436175 153:0.158045 154:-0.127084 155:-0.460307 156:0.589801 157:-0.00352149 158:0.326816 159:-0.312691 160:0.151499 161:-0.134689 162:0.347161 163:0.332205 164:-0.178989 165:0.0695623 166:0.373294 167:0.862663 168:-0.0891867 169:-0.165281 170:-0.53742 171:-0.863706 172:0.188166 173:-0.561827 174:0.577082 175:-0.193286 176:-0.810952 177:-0.0618332 178:0.434046 179:0.449449 180:0.0512402 181:-0.655546 182:-0.626896 183:-1 184:-0.0095621 185:-0.180048 186:-0.186915 187:-0.403213 188:-0.0299969 
0.7994664211822496 0 0 6.733541384933116 0 0 1:-0.28295 2:0.104159 3:-0.196718 4:0.166531 5:-0.0962283 6:-0.291751 7:-0.505556 8:-0.0417566 9:-0.672541 10:-0.207254 11:-0.145499 12:0.0146598 13:-0.221527 14:-0.42144 15:-0.559601 16:-0.148211 17:-0.374924 18:0.370495 19:-0.06119 20:-0.368757 21:0.297008 22:-0.231313 23:-0.253682 24:0.0665971 25:-0.343502 26:0.609746 27:0.112093 28:-0.802163 29:0.329911 30:-0.468533 31:-0.340273 32:0.709628 33:-0.548279 34:-0.670137 35:-0.399814 36:0.453239 37:-0.761874 38:0.137042 39:-0.24964 40:-0.0958831 41:-0.0674645 42:-0.0442942 43:0.131402 44:-0.0596392 45:0.0968084 46:-0.228671 47:0.211998 48:0.610411 49:0.0118041 50:0.716497 51:-0.0373054 52:-0.0751634 53:0.0161272 54:0.0223303 55:0.0955345 56:0.0625757 57:-0.312796 58:0.588387 59:-0.193057 60:-0.733621 61:-0.457762 62:-0.240892 63:-0.439131 64:0.0988074 65:-0.0888039 66:0.221227 67:-0.297031 68:-0.0582783 69:-0.486053 70:0.285562 71:-0.369664 72:-0.287971 73:-0.184574 74:0.230106 75:-0.0670546 76:0.0475229 77:-0.157392 78:0.680721 79:-0.139066 80:-0.458999 81:-0.622457 82:0.131539 83:-0.109421 84:-0.124953 85:-0.233333 86:0.244237 87:0.506788 88:0.19678 89:-0.313733 90:0.421442 91:0.0197155 92:-0.202685 93:-0.315744 94:0.396727 95:-0.449046 96:-0.0544282 97:0.326369 98:0.0687969 99:-0.212274 100:0.259015 101:-0.411944 102:0.437652 103:-0.27177 104:-0.123615 105:0.656165 106:1 107:0.352018 108:0.402365 109:-0.310103 110:0.215303 111:0.147387 112:-0.181151 113:0.0290423 114:0.107866 115:0.165231 116:-0.0494357 117:0.104998 118:0.111291 119:0.125767 120:0.19845 121:-0.437188 122:0.118681 123:-0.457466 124:-0.384333 125:-0.10538 126:-0.605436 127:-0.0192357 128:0.479053 129:-0.398938 130:0.361907 131:0.195647 132:-0.201481 133:0.0477564 134:0.252715 135:-0.0270554 136:-0.0182939 137:-0.564087 138:-0.277031 139:-0.145761 140:0.0298407 141:0.558022 142:0.637211 143:0.488022 144:-0.216668 145:-0.275004 146:0.725013 147:0.612998 148:-0.661987 149:-0.638163 150:-0.647197 151:-0.199727 152:0.569429 153:-0.231768 154:0.534751 155:-0.0833543 156:-0.509716 157:-0.220614 158:0.14111 159:0.0354264 160:-0.431094 161:-0.0532964 162:-0.393763 163:-0.575586 164:-0.0260678 165:-0.397774 166:-0.0762732 167:0.396724 168:-0.0743151 169:-0.0349098 170:0.200121 171:-0.012843 172:0.360296 173:-0.337554 174:-0.209868 175:-0.300481 176:0.0856127 177:-0.553786 178:-0.0209355 179:-0.259931 180:-0.150126 181:0.273597 182:0.486733 183:0.317808 184:0.31152 185:-0.17465 186:-0.380144 187:-0.181454 188:-0.224125 
0 0 0 9.819899612815153 0 0 1:-0.22545 2:-0.382592 3:-0.28362 4:0.472003 5:0.0494892 6:0.166476 7:-0.392805 8:-0.35991 9:-0.722697 10:-0.432743 11:-0.505542 12:0.141716 13:-0.80511 14:-0.17249 15:-0.483542 16:-0.40456 17:-0.55435 18:0.0813826 19:-0.562847 20:-0.112872 21:0.30624 22:-0.239314 23:0.00624573 24:0.909694 25:-0.366515 26:0.410628 27:-0.210065 28:-0.354927 29:0.103274 30:0.219542 31:0.0827407 32:-0.141811 33:-0.66465 34:0.0597102 35:-0.489824 36:-0.497271 37:-0.608612 38:0.199339 39:-0.380462 40:-0.461744 41:-0.676456 42:-0.179567 43:-0.242281 44:-0.306227 45:-0.400388 46:0.236805 47:0.533187 48:-0.279637 49:0.599034 50:0.798508 51:0.542316 52:0.259294 53:0.136731 54:-0.505851 55:-0.121691 56:0.29802 57:-0.67239 58:0.470244 59:0.0760804 60:-0.431921 61:0.143337 62:-0.555867 63:0.359181 64:0.225126 65:-0.367395 66:0.433656 67:0.265989 68:-0.242577 69:0.214732 70:0.132259 71:0.157553 72:0.0786873 73:0.0162989 74:0.129769 75:-0.530525 76:0.268698 77:-0.705603 78:0.572579 79:-0.0916189 80:-0.511255 81:-0.31628 82:0.456563 83:0.0177375 84:-0.168406 85:-0.0254851 86:0.39644 87:0.126489 88:-0.107958 89:-0.40142 90:0.766669 91:-0.0775686 92:-0.195438 93:-0.186287 94:0.296396 95:0.262961 96:-0.0694541 97:-0.129612 98:0.146265 99:0.143937 100:0.329673 101:0.385307 102:-0.246421 103:-0.142826 104:0.860655 105:0.712021 106:0.531431 107:0.791298 108:0.627256 109:-0.480788 110:-0.0332514 111:0.13576 112:-0.0874697 113:0.140506 114:0.750263 115:0.692316 116:0.382121 117:0.386574 118:0.112439 119:-0.567002 120:0.587395 121:-0.417679 122:0.44455 123:-0.48556 124:-0.52157 125:-0.126319 126:0.283693 127:0.118956 128:0.134561 129:-0.383727 130:-0.391686 131:-0.204817 132:0.104121 133:-0.479397 134:0.760961 135:0.0518496 136:-0.679587 137:-0.773387 138:0.306489 139:0.0196745 140:-0.435283 141:-0.436173 142:0.885686 143:0.330663 144:-0.812946 145:-0.240385 146:0.230671 147:0.0132598 148:-0.183783 149:-0.65089 150:-0.794846 151:-0.672017 152:0.75066 153:0.0642929 154:0.581017 155:0.409864 156:-0.31639 157:-1 158:-0.103842 159:-0.903642 160:-0.282488 161:0.158126 162:-0.687962 163:-0.134867 164:0.402761 165:-0.293619 166:0.0880848 167:0.547044 168:-0.314682 169:-0.529532 170:0.162836 171:-0.373828 172:-0.0842666 173:0.596756 174:-0.0413974 175:0.0477256 176:0.0473668 177:-0.79531 178:0.0184726 179:-0.187538 180:-0.754374 181:-0.328807 182:1 183:0.0954824 184:-0.690225 185:-0.743546 186:0.0795417 187:-0.530993 188:-0.52453 
1.910287364624535 0 0.03392078548433287 12.99540854344078 0.1647595009337359 0.4444725607496044 1:-0.23077 2:-0.0626631 3:0.0305502 4:-0.295543 5:-0.280156 6:0.423374 7:-0.11585 8:-0.662261 9:-0.0251583 10:-0.288834 11:-0.489474 12:0.222669 13:-0.530994 14:-0.565621 15:-1 16:0.0427772 17:-0.583264 18:0.20901 19:-0.00551654 20:-0.459151 21:-0.297157 22:-0.943252 23:-0.393741 24:0.334824 25:-0.143167 26:-0.0562417 27:-0.100385 28:0.219377 29:-0.354427 30:0.0192889 31:-0.504331 32:-0.151882 33:-0.621814 34:-0.29043 35:-0.316618 36:0.172045 37:0.826508 38:-0.214908 39:-0.306537 40:0.144615 41:-0.170269 42:-0.00452146 43:-0.219689 44:0.0162865 45:-0.410542 46:-0.105725 47:-0.167331 48:-0.132945 49:0.27462 50:0.0152992 51:-0.0732318 52:0.150002 53:-0.240086 54:0.0644062 55:0.735637 56:-0.264404 57:-0.547531 58:0.553185 59:-0.259764 60:-0.610428 61:0.0169923 62:0.253201 63:-0.049503 64:0.0499133 65:0.109921 66:0.271412 67:-0.135998 68:0.447043 69:-0.48976 70:0.521005 71:-0.687051 72:-0.350488 73:-0.129368 74:-0.0140502 75:-0.554913 76:-0.0205156 77:-0.143072 78:-0.431527 79:-0.188831 80:0.17916 81:-0.189153 82:0.661966 83:-0.0459446 84:-0.463778 85:0.1553 86:0.082825 87:-0.205436 88:0.375108 89:-0.0581942 90:0.711964 91:-0.0351381 92:-0.306399 93:-0.366625 94:0.35381 95:0.43754 96:-0.189924 97:-0.160798 98:0.111879 99:-0.0934424 100:-0.214152 101:-0.447023 102:0.149524 103:-0.224337 104:0.317054 105:0.473523 106:0.668123 107:0.512457 108:0.0340434 109:0.730375 110:-0.0453044 111:0.308476 112:0.600177 113:0.0574267 114:0.863759 115:0.387231 116:-0.233787 117:-0.0194075 118:0.142095 119:-0.189438 120:0.296015 121:-0.185228 122:0.0827785 123:-0.273906 124:-0.282749 125:-0.109704 126:-0.371724 127:-0.49428 128:0.276522 129:-0.561622 130:0.0691468 131:-0.323408 132:-0.126927 133:-0.44059 134:-0.120009 135:-0.415293 136:-0.272037 137:-0.328712 138:-0.839785 139:-0.184213 140:0.673925 141:0.187693 142:0.444422 143:0.435341 144:-0.309883 145:-0.366885 146:0.74672 147:0.715336 148:-0.743417 149:0.231611 150:-0.482536 151:-0.287056 152:0.32147 153:-0.217599 154:-0.973724 155:-0.0206307 156:-0.0187765 157:-0.766818 158:-0.00716112 159:-0.37695 160:-0.33197 161:-0.175146 162:-0.364346 163:-0.233972 164:0.356221 165:-0.352781 166:-0.129628 167:-0.18954 168:-0.457917 169:0.399437 170:0.112238 171:0.0718149 172:0.208148 173:-0.320974 174:-0.0554643 175:-0.221076 176:-0.113285 177:0.108205 178:-0.36208 179:0.0212486 180:0.331899 181:0.750959 182:0.00784006 183:0.304337 184:0.522519 185:-0.199449 186:0.115117 187:-0.073558 188:-0.329362 
0.003704449569694897 3.156798463334296 0 1.291267071223472 0 0 1:-0.272169 2:-0.196282 3:0.100206 4:0.425468 5:-0.358566 6:-0.267952 7:-0.370496 8:-0.148972 9:-0.5951 10:-0.00544337 11:-0.425543 12:0.189878 13:-0.516429 14:0.148939 15:-0.506865 16:-0.536641 17:-0.698342 18:0.129271 19:-0.452294 20:0.0653238 21:-0.0887643 22:0.0654874 23:0.254797 24:-0.031396 25:-0.849328 26:-0.00674329 27:-0.449347 28:0.00632495 29:-0.0320717 30:0.111579 31:0.197473 32:-0.16204 33:-0.700015 34:-0.137293 35:-0.220458 36:-0.0311337 37:-0.752354 38:-0.0151228 39:-0.298216 40:-0.0372608 41:-0.468128 42:0.123907 43:-0.070518 44:-0.334231 45:-0.917399 46:-0.116675 47:-0.493343 48:-0.328181 49:-0.460402 50:-0.307028 51:-0.224803 52:-0.145757 53:0.0707809 54:-0.243843 55:-0.11008 56:0.487979 57:-0.212591 58:-0.116613 59:-0.0646725 60:-0.489201 61:0.0550769 62:0.00859357 63:-0.402171 64:0.409781 65:-0.646919 66:0.62825 67:-0.380875 68:-0.686299 69:0.0792037 70:0.177854 71:-0.423998 72:0.308026 73:-0.461102 74:0.577654 75:0.0693006 76:0.081625 77:0.096485 78:-0.144382 79:-0.0679136 80:0.582707 81:-0.262158 82:-0.0592078 83:0.321391 84:-0.353625 85:-0.434524 86:-0.136417 87:0.638333 88:0.0379659 89:-0.0290163 90:0.698476 91:0.151792 92:-0.0704771 93:-0.569017 94:0.577855 95:0.0790448 96:-0.308676 97:0.177571 98:0.276957 99:-0.361034 100:0.315147 101:-0.412869 102:0.547095 103:0.30965 104:0.15791 105:-0.313556 106:0.783497 107:0.0353144 108:-0.547025 109:-0.152702 110:0.507705 111:0.633721 112:0.291116 113:-0.224632 114:0.57465 115:0.413121 116:-0.448531 117:-0.703969 118:0.486817 119:-0.195268 120:-0.525445 121:-0.785308 122:0.488733 123:-0.0794926 124:-0.733865 125:-0.401997 126:-0.207743 127:-0.32978 128:0.0881535 129:-0.344297 130:0.0524379 131:-0.0381545 132:0.000811334 133:-0.0324074 134:0.416581 135:-0.170164 136:-0.129309 137:-0.296621 138:0.44757 139:0.662935 140:-0.711998 141:-0.546359 142:0.739144 143:0.258977 144:-0.714277 145:-0.561653 146:0.185772 147:-0.229578 148:0.179782 149:-0.399892 150:0.0616797 151:0.386972 152:0.0359364 153:-0.606967 154:0.00774229 155:-0.281051 156:-0.217208 157:-0.709085 158:0.282376 159:-0.402784 160:-0.755557 161:-0.509769 162:0.598442 163:-0.0903895 164:-0.581901 165:-0.651847 166:-0.140204 167:-0.19273 168:-0.52527 169:-0.179779 170:0.337199 171:0.106856 172:0.122859 173:-0.261219 174:0.0290082 175:-0.240627 176:-0.119988 177:-0.588836 178:0.186088 179:0.519986 180:-0.423781 181:-0.667045 182:0.399522 183:-0.374726 184:-0.769144 185:-0.599972 186:0.109881 187:-0.667688 188:-0.187497 
0 0 0 1.525274786236766 0 0 1:-0.266977 2:-0.302078 3:0.141717 4:0.0383984 5:0.40991 6:0.554352 7:-0.249065 8:-0.551993 9:-0.650844 10:-0.27931 11:-0.614734 12:0.465953 13:-0.176322 14:-0.236005 15:-0.42278 16:-0.407173 17:-0.353163 18:-0.577821 19:-0.587443 20:0.40524 21:0.32103 22:0.036411 23:0.211964 24:0.0016148 25:-0.550227 26:-0.394909 27:-0.532802 28:0.238082 29:0.253652 30:-0.466187 31:-0.518639 32:0.302608 33:-0.414958 34:-0.131781 35:0.0724085 36:0.0313692 37:-0.442725 38:-0.277983 39:-0.833289 40:0.0593922 41:-0.0297226 42:-0.169786 43:-0.161324 44:0.24669 45:-0.262624 46:-0.786657 47:-0.738852 48:0.203972 49:-0.3123 50:0.269898 51:-0.115753 52:-0.313247 53:0.610961 54:0.0111328 55:0.258958 56:-0.11328 57:-0.547864 58:-0.233441 59:-0.205205 60:-0.433835 61:0.0854866 62:-0.29425 63:0.131403 64:0.217957 65:-0.526099 66:0.18763 67:-0.170783 68:-0.560213 69:0.795539 70:-0.0781091 71:-0.258084 72:0.656915 73:0.074176 74:0.248536 75:-0.451745 76:-0.234355 77:0.12377 78:0.235637 79:-0.112182 80:0.209895 81:0.0638176 82:0.233516 83:-0.320766 84:-0.169746 85:-0.422814 86:0.431836 87:-0.0211864 88:0.27932 89:-0.249569 90:0.181672 91:0.0501405 92:-0.111366 93:0.291886 94:0.0103889 95:0.0196846 96:0.559711 97:-0.0609966 98:0.191232 99:-0.167768 100:0.547417 101:-0.327265 102:0.311199 103:-0.489746 104:-0.00820789 105:0.439984 106:0.354915 107:0.0833957 108:-0.364097 109:-0.258148 110:0.261775 111:0.332614 112:0.142071 113:-0.055107 114:0.377169 115:0.356642 116:0.156919 117:0.169013 118:0.00588348 119:-0.00384992 120:0.715178 121:-0.0372417 122:0.282031 123:-0.21851 124:-0.383675 125:-0.0238077 126:-0.519423 127:-0.170109 128:0.274251 129:-0.190335 130:-0.0502933 131:-0.60884 132:0.101942 133:-0.120488 134:0.110988 135:0.303235 136:-0.155608 137:0.143033 138:0.167303 139:0.477335 140:-0.208834 141:-0.122934 142:0.279836 143:-0.0792235 144:-0.355976 145:-0.130417 146:-0.93792 147:-0.545884 148:0.597677 149:-0.432887 150:-0.58833 151:0.180831 152:-0.159021 153:-0.115769 154:0.33145 155:-0.0697534 156:-0.486067 157:-0.00671084 158:0.0130628 159:-0.217826 160:0.0411607 161:-0.0852026 162:-0.281996 163:-0.317639 164:0.209708 165:-0.350707 166:-0.360969 167:0.0661258 168:-0.0718318 169:0.457276 170:-0.0637963 171:-0.376097 172:0.276026 173:0.269176 174:0.349244 175:0.529274 176:0.325512 177:0.458815 178:0.152761 179:-0.0139388 180:0.47598 181:-0.647561 182:0.00996395 183:-0.500998 184:-0.407567 185:-0.262155 186:-0.662508 187:-0.697205 188:0.134299 
0 0 0 16.90175656484529 0 0.7238153600675186 1:0.0514604 2:-0.138722 3:-0.48924 4:0.140314 5:0.0915327 6:0.0509195 7:-0.127998 8:0.0072278 9:-0.555026 10:-0.438141 11:-0.283 12:0.169049 13:0.101346 14:-0.0441176 15:-0.0381917 16:0.310341 17:-0.200369 18:0.412685 19:0.17413 20:-0.345302 21:-0.569536 22:-0.402506 23:-0.346553 24:-0.0917757 25:-0.0486276 26:0.36784 27:0.17373 28:-0.180553 29:-0.367738 30:-0.58321 31:-0.298388 32:0.061417 33:-0.675321 34:-0.609134 35:-0.233641 36:0.0928391 37:0.473541 38:-0.66209 39:-0.160428 40:0.352898 41:0.0240469 42:-0.0415241 43:0.150761 44:-0.0805642 45:-0.380208 46:-0.256341 47:0.174507 48:-0.496464 49:-0.301224 50:0.238433 51:-0.435843 52:-0.235544 53:0.122814 54:0.26544 55:0.402049 56:-0.0409619 57:-0.143528 58:-0.175806 59:-0.0295283 60:-0.34748 61:0.313801 62:-0.461703 63:0.121215 64:-0.0554212 65:-0.107658 66:0.350319 67:-0.0800318 68:-0.177533 69:-0.224516 70:0.63106 71:-0.420248 72:-0.402669 73:-0.0852125 74:0.162146 75:-0.264247 76:0.0866017 77:-0.290031 78:0.523315 79:-0.0191125 80:-0.123127 81:-0.332609 82:0.399534 83:-0.268615 84:-0.107894 85:-0.0668827 86:0.264052 87:-0.244792 88:-0.0551387 89:-0.572006 90:0.375883 91:-0.262369 92:-0.115311 93:-0.28383 94:0.487475 95:0.0678124 96:-0.199116 97:-0.4465 98:0.301927 99:-0.0169296 100:-0.318938 101:-0.460443 102:0.442526 103:-0.453436 104:-0.386019 105:0.302726 106:0.213904 107:-0.1117 108:-0.212043 109:-0.467888 110:0.620817 111:0.216005 112:-0.349233 113:-0.0703064 114:0.330478 115:-0.0961369 116:0.103621 117:-0.177973 118:0.272821 119:0.238793 120:-0.256735 121:-0.384717 122:0.115741 123:-0.179239 124:-0.0205215 125:0.321965 126:-0.183102 127:0.188868 128:0.165047 129:-0.169082 130:0.332227 131:0.224511 132:-0.00781973 133:-0.801683 134:-0.194725 135:-0.508122 136:-0.385735 137:-0.553286 138:-1 139:-0.462959 140:0.512696 141:-0.182547 142:-0.0321964 143:0.0322641 144:-0.211611 145:0.0942242 146:0.406316 147:0.599772 148:-0.543508 149:-0.509386 150:-0.232414 151:0.327861 152:-0.0899744 153:-0.34111 154:0.289904 155:-0.38284 156:-0.403733 157:-0.456291 158:0.259461 159:0.335207 160:-0.210821 161:0.0605383 162:0.00611457 163:-0.450852 164:-0.0330575 165:0.173535 166:-0.033216 167:0.366885 168:-0.136581 169:0.338181 170:-0.782247 171:-0.171015 172:0.468852 173:-0.702805 174:-0.116647 175:-0.686024 176:-0.277951 177:-0.242848 178:-0.486471 179:-0.133051 180:0.216704 181:0.409672 182:0.237975 183:0.191225 184:0.329926 185:-0.112502 186:0.601441 187:0.0852353 188:-0.549913 
4.664900367817453 0.6280041815775416 1.476912238487925 1.926064470898862 1.080747046450476 5.728593803911677 1:0.27887 2:0.191638 3:0.275829 4:0.442889 5:0.132409 6:0.0356414 7:-0.509077 8:0.0376824 9:-0.446064 10:-0.108322 11:-0.0936622 12:-0.159612 13:0.0244887 14:-0.0294438 15:-0.226557 16:-0.187473 17:-0.326258 18:0.568666 19:0.238864 20:-0.373211 21:-0.42977 22:-0.297704 23:0.0984609 24:-0.0223596 25:-0.0277121 26:0.248713 27:0.680141 28:-0.26527 29:0.169672 30:-0.0996964 31:0.29983 32:-0.127794 33:-0.182242 34:0.195364 35:0.338827 36:-0.309862 37:-0.0616974 38:0.11343 39:-0.211559 40:-0.138593 41:0.421375 42:-0.97932 43:0.32368 44:0.339395 45:0.079611 46:0.126115 47:0.516808 48:-0.457793 49:-0.610597 50:-0.192661 51:-0.433576 52:-0.200766 53:0.528403 54:-0.18094 55:0.221021 56:0.669757 57:-0.472294 58:0.338994 59:-0.0750995 60:-0.312639 61:-0.377868 62:-0.291282 63:0.038693 64:-0.120128 65:-0.00394269 66:0.489806 67:0.0489981 68:0.22113 69:-0.695375 70:0.264285 71:-0.429666 72:-0.161519 73:0.0975337 74:-0.132597 75:-0.320554 76:-0.0465108 77:-0.124424 78:0.184196 79:-0.0956789 80:0.0269574 81:-0.484461 82:-0.46586 83:-0.151804 84:-0.0842405 85:-0.331497 86:0.325891 87:0.272392 88:-0.27209 89:-0.0735449 90:0.638586 91:-0.270936 92:-0.247252 93:0.626074 94:0.09756 95:0.292564 96:0.237415 97:-0.0573811 98:0.501567 99:-0.0614651 100:-0.000845881 101:-0.224839 102:0.185163 103:-0.434235 104:0.176415 105:-0.59171 106:-0.0775624 107:-0.419439 108:-0.421212 109:-0.0994726 110:0.842585 111:0.700298 112:-0.129384 113:-0.244712 114:0.585178 115:0.545105 116:-0.32051 117:-0.420622 118:-0.579012 119:0.0527882 120:-0.292575 121:-0.301919 122:0.351341 123:-0.401316 124:-0.489315 125:0.368769 126:0.12044 127:0.249519 128:0.158594 129:-0.196265 130:-0.566173 131:0.0875267 132:0.130212 133:-0.430863 134:0.064412 135:-0.036768 136:-0.378203 137:-0.499152 138:-0.00792757 139:0.107784 140:-0.151267 141:-0.266622 142:-0.353961 143:0.0798934 144:-0.138096 145:-0.155166 146:0.759872 147:0.695694 148:-0.66163 149:0.0533459 150:0.59107 151:0.903992 152:-0.279763 153:-0.581275 154:0.29017 155:-0.218255 156:-0.615237 157:-0.518715 158:-0.456873 159:-0.334577 160:-0.3856 161:0.715481 162:0.163068 163:-0.486684 164:-0.212954 165:-0.261354 166:0.53808 167:0.600512 168:-0.48594 169:-0.0145448 170:-0.67391 171:-0.305797 172:0.479827 173:0.160491 174:0.200556 175:-0.229987 176:-0.328954 177:-0.237747 178:0.247056 179:-0.0437317 180:-0.176455 181:-0.032329 182:-0.0674391 183:-0.144788 184:-0.198058 185:0.0867947 186:0.643076 187:0.127514 188:-0.50606 
0 0 0 4.748651433826536 0 1.808537148363763 1:-0.228847 2:-0.425019 3:-1 4:0.0304755 5:0.652799 6:0.274416 7:-0.0202554 8:-0.210507 9:0.313186 10:-0.504895 11:-0.0055375 12:0.474617 13:-0.506288 14:-0.879399 15:-0.626257 16:0.108824 17:-0.355483 18:-0.0191854 19:-0.0191789 20:-0.106472 21:0.356769 22:-0.263769 23:-0.0663087 24:-0.036359 25:-0.388545 26:-0.210847 27:-0.149848 28:0.37101 29:1 30:-0.702848 31:-0.0465577 32:0.550761 33:0.0606319 34:-0.544267 35:-0.418253 36:0.734769 37:-0.214058 38:0.0225326 39:-0.683421 40:-0.257165 41:0.23819 42:-0.18609 43:-0.0663706 44:0.109619 45:-0.384713 46:-0.295238 47:-0.122989 48:-0.159611 49:0.0913205 50:0.222673 51:-0.129482 52:-0.11586 53:0.303771 54:-0.351507 55:0.179358 56:0.163821 57:-0.343261 58:0.23415 59:-0.231113 60:-0.232426 61:0.138802 62:0.194554 63:-0.125668 64:0.00497996 65:0.307699 66:-0.16436 67:-0.0927364 68:0.518745 69:-0.371809 70:0.505868 71:-0.43057 72:-0.0904832 73:-0.503777 74:0.0342986 75:-0.26832 76:-0.0632289 77:-0.296668 78:-0.492319 79:-0.0926764 80:0.306481 81:-0.0918327 82:0.0818113 83:0.0567309 84:-0.126107 85:-0.435687 86:-0.212744 87:0.51889 88:0.265852 89:-0.145219 90:0.515035 91:0.321615 92:-0.229016 93:-0.167314 94:-0.0117014 95:0.373846 96:0.194522 97:0.216599 98:-0.572622 99:0.1985 100:0.279112 101:-0.420364 102:0.513726 103:-0.334242 104:-0.121915 105:0.701371 106:0.0897868 107:0.0465633 108:0.150527 109:-0.361596 110:-0.0890063 111:-0.108245 112:0.148134 113:0.378583 114:0.0340987 115:0.309883 116:0.302447 117:0.126649 118:-0.145888 119:-0.214952 120:0.267029 121:-0.578054 122:-0.432139 123:-0.584173 124:-0.0437576 125:-0.0188138 126:-0.367054 127:-0.160228 128:0.0844837 129:-0.493587 130:-0.302942 131:-0.21704 132:-0.20284 133:-0.414713 134:-0.0497078 135:-0.348808 136:0.00342089 137:-0.0424638 138:0.277798 139:0.653175 140:-0.0157356 141:-0.0186428 142:-0.158227 143:0.212751 144:-0.0649353 145:0.35346 146:0.376984 147:0.490506 148:-0.398457 149:-0.0721501 150:-0.511573 151:-0.00716131 152:0.217788 153:0.276083 154:0.0900205 155:0.272547 156:-0.0266468 157:-0.143495 158:-0.349825 159:-0.330667 160:-0.0736258 161:-0.134158 162:-0.191836 163:-0.439953 164:0.0536544 165:-0.119078 166:-0.0604657 167:0.367548 168:-0.337842 169:-0.312423 170:-0.114355 171:-0.145468 172:0.0660235 173:0.241764 174:0.230847 175:-0.247262 176:0.00742175 177:0.279907 178:0.161978 179:0.65589 180:0.517977 181:-0.0529326 182:0.254974 183:-0.402125 184:-0.145134 185:0.122939 186:0.315534 187:-0.105339 188:-0.218396 
1.694978396086948 0 1.185772626000949 2.802943779497606 0 1.147107143576547 1:-0.25761 2:-0.0631851 3:0.316143 4:0.017633 5:-0.0758229 6:-0.190988 7:-0.418591 8:0.0966016 9:-0.985736 10:-0.238991 11:-0.564307 12:-0.117561 13:-0.126807 14:0.0475875 15:-0.347593 16:-0.459258 17:-0.520973 18:0.426111 19:0.324124 20:-0.359124 21:-0.12633 22:0.0755532 23:0.377264 24:-0.276593 25:-0.239246 26:0.488297 27:0.258221 28:-0.465792 29:-0.319627 30:-0.439151 31:-0.245588 32:-0.0725998 33:-0.50216 34:0.269276 35:0.25484 36:-0.290555 37:-0.227259 38:-0.0502115 39:-0.678014 40:-0.227733 41:-0.138457 42:0.0936757 43:0.0815239 44:0.133991 45:-0.160976 46:0.0405046 47:0.266461 48:-0.0605784 49:-0.645491 50:0.162971 51:-0.373711 52:-0.336476 53:0.351787 54:0.141844 55:0.139614 56:0.130325 57:-0.441796 58:0.246806 59:-0.565477 60:-0.351988 61:-0.0231229 62:-0.15781 63:-0.468548 64:0.195788 65:-0.372153 66:0.553371 67:-0.475877 68:-0.358848 69:-0.332005 70:0.44153 71:-0.310809 72:-0.204857 73:0.103827 74:0.797895 75:0.268432 76:-0.183516 77:-0.214841 78:0.570071 79:0.206192 80:-0.283074 81:-0.468881 82:0.643204 83:0.108092 84:-0.249114 85:-0.121469 86:0.802053 87:0.150749 88:-0.441237 89:-0.201767 90:0.461663 91:0.397889 92:-0.144864 93:-0.577258 94:0.518059 95:0.177476 96:-0.329788 97:-0.140726 98:-0.132098 99:-0.105543 100:0.393155 101:-0.656146 102:0.776047 103:-0.0195942 104:-0.355947 105:-0.0902854 106:0.121899 107:-0.340352 108:-0.502417 109:-0.398464 110:0.676217 111:0.413704 112:-0.417873 113:0.131704 114:0.840527 115:1 116:-0.0346022 117:-0.300263 118:0.76423 119:0.4911 120:-0.41773 121:-0.677019 122:0.420473 123:-0.272278 124:-0.678529 125:0.0209843 126:0.429657 127:-0.0405361 128:-0.103 129:-0.891207 130:-0.128869 131:-0.589578 132:-0.152625 133:-0.291839 134:-0.858421 135:0.07492 136:0.276348 137:-0.464121 138:0.169131 139:0.101905 140:-0.412342 141:-0.88341 142:0.21423 143:-0.213638 144:-0.558649 145:-0.320676 146:0.43736 147:0.447075 148:-0.471168 149:-0.335135 150:0.150712 151:0.672414 152:-0.385773 153:-0.16424 154:0.760147 155:0.449027 156:-0.484327 157:-0.681624 158:-0.0386058 159:-0.399328 160:-0.34336 161:-0.878483 162:0.0549331 163:-0.685572 164:-0.542258 165:-0.273333 166:0.422634 167:0.228993 168:-0.507012 169:-0.918563 170:-0.470417 171:-0.473793 172:-0.243737 173:-0.0686042 174:0.0727 175:0.342289 176:-0.0918854 177:-0.268144 178:-0.019856 179:-0.138544 180:-0.0366333 181:-0.416325 182:0.121541 183:-0.35521 184:-0.585196 185:-0.25441 186:0.278595 187:0.12112 188:-0.48318 
0 0 0 10.97002612585341 0 0 1:-0.0423437 2:-0.254192 3:0.152755 4:0.0234887 5:0.255769 6:0.500718 7:-0.271406 8:-0.453504 9:-0.400047 10:-0.410164 11:-0.292411 12:0.346482 13:-0.524137 14:-0.0982873 15:-0.0320369 16:-0.693458 17:-0.372943 18:-0.550426 19:-0.753805 20:0.666802 21:-0.0849824 22:-0.387253 23:-0.290011 24:0.387788 25:-0.683272 26:0.000704586 27:-0.416015 28:-0.286606 29:-0.498649 30:-0.280645 31:-0.736706 32:0.218292 33:0.334081 34:0.339804 35:0.183967 36:-0.0300754 37:-0.354185 38:-0.120056 39:-0.754111 40:-0.0265252 41:-0.237569 42:-0.157842 43:-0.103936 44:0.316135 45:-0.192166 46:-0.739063 47:-0.283675 48:0.539601 49:0.159404 50:0.302645 51:0.161309 52:0.249059 53:0.0758775 54:-0.267917 55:-0.341516 56:0.184932 57:-0.534284 58:0.307332 59:0.00317589 60:-0.511247 61:0.417994 62:-0.858648 63:-0.34895 64:0.570118 65:-0.287445 66:-0.0443168 67:-0.127448 68:-0.386561 69:0.127237 70:-0.224643 71:0.156956 72:0.565289 73:-0.366461 74:0.426713 75:-0.116984 76:0.0739251 77:-0.452551 78:0.104345 79:-0.0005809 80:0.0756184 81:-0.24586 82:0.298662 83:0.381507 84:-0.0968111 85:0.131584 86:0.0203669 87:0.255864 88:0.265221 89:-0.0446885 90:0.55694 91:0.243516 92:0.0115887 93:-0.0704114 94:0.39083 95:0.808088 96:0.258016 97:0.550971 98:-0.141679 99:0.331703 100:0.905729 101:-0.0907141 102:0.367828 103:0.290858 104:0.352148 105:0.541963 106:0.441321 107:0.397397 108:0.186533 109:-0.381594 110:0.0716419 111:-0.0615289 112:0.104296 113:0.0747128 114:-0.479642 115:-0.160706 116:0.585331 117:-0.52153 118:-0.0699119 119:-0.604994 120:0.413471 121:0.388934 122:0.479353 123:-0.129554 124:-0.553424 125:-0.0399269 126:0.414592 127:0.300334 128:-0.212113 129:0.187854 130:-0.176698 131:-0.0719384 132:0.909931 133:-0.214621 134:0.564086 135:0.527217 136:-0.461319 137:-0.274265 138:-0.24438 139:-0.116434 140:0.0153356 141:-0.676363 142:0.224002 143:-0.15685 144:-0.57334 145:-0.00851769 146:-0.564718 147:-0.210214 148:0.798912 149:-0.600818 150:-0.457598 151:-0.355511 152:0.0123909 153:-0.129642 154:-0.191835 155:-0.199551 156:0.239928 157:0.170036 158:-0.184272 159:-0.218061 160:0.52242 161:0.765186 162:0.367937 163:0.146232 164:0.229802 165:-0.288178 166:-0.158394 167:0.430307 168:-0.526737 169:-0.338545 170:-0.183549 171:-0.445982 172:0.227466 173:0.228211 174:-0.455628 175:0.312475 176:0.792175 177:-0.102282 178:-0.145421 179:-0.682376 180:0.0831047 181:-0.254182 182:-0.056187 183:-0.17192 184:0.0461399 185:-0.253874 186:-0.572803 187:-0.401042 188:0.27935 
2.750575786713297 1.567325372918232 2.580411594559657 0 3.859759380916376 0.814472693206504 1:-0.22341 2:-0.1027 3:-0.414461 4:0.104587 5:-0.0947852 6:-0.238617 7:-0.469129 8:0.635194 9:-0.486113 10:-0.411321 11:-0.0673674 12:0.294211 13:-0.145088 14:0.105438 15:-0.118326 16:-0.312817 17:-0.495416 18:0.278391 19:0.41496 20:-0.656132 21:-0.188151 22:-0.139503 23:0.157323 24:-0.151425 25:-0.13702 26:0.433071 27:0.566243 28:-0.648354 29:-0.192105 30:-0.64836 31:0.103748 32:0.00138768 33:-0.655705 34:-0.375482 35:0.0334738 36:0.0715654 37:-0.346566 38:-0.207347 39:-0.598436 40:0.086675 41:-0.586166 42:0.382162 43:0.0345003 44:-0.427028 45:-0.483085 46:0.347156 47:0.35203 48:-0.754484 49:-0.66381 50:0.60141 51:-0.350411 52:-0.694734 53:-0.282038 54:-0.183322 55:0.564185 56:-0.0934199 57:0.328568 58:-0.487906 59:-0.0634804 60:0.165213 61:1 62:-0.481745 63:-0.393569 64:0.305301 65:-0.671052 66:0.823257 67:-0.1069 68:-0.582969 69:-0.558536 70:0.614558 71:-0.459748 72:-0.322065 73:-0.506599 74:0.280045 75:-0.46597 76:-0.0897087 77:-0.852267 78:0.910775 79:-0.0236303 80:-0.634314 81:0.0681196 82:-0.552691 83:-0.233694 84:-0.15491 85:-0.381773 86:0.766337 87:-0.104863 88:-0.191825 89:-0.32466 90:0.156731 91:0.21794 92:-0.0182846 93:-0.587172 94:0.616851 95:-0.192765 96:-0.501855 97:0.217252 98:0.689146 99:-0.115517 100:-0.369796 101:-0.853498 102:0.715026 103:-0.0665417 104:-0.56608 105:-0.680501 106:0.502657 107:-0.454606 108:-0.759509 109:-0.474837 110:0.731406 111:0.232081 112:-0.150956 113:-0.0789676 114:0.719131 115:0.67281 116:-0.14488 117:-0.0794411 118:0.564105 119:0.299284 120:-0.169529 121:-0.289018 122:0.09288 123:-0.512474 124:0.0703375 125:0.115675 126:0.718932 127:0.334097 128:-0.276083 129:-0.494512 130:-0.0776411 131:-0.115577 132:-0.1579 133:-0.579296 134:0.234469 135:0.0251462 136:-0.252579 137:-0.51582 138:-0.0331643 139:0.000332581 140:0.160963 141:-0.485344 142:-0.28911 143:0.130582 144:-0.435415 145:-0.0332992 146:0.462483 147:0.642767 148:-0.44997 149:-0.469507 150:0.78245 151:0.700141 152:-0.589661 153:0.0885056 154:0.751414 155:0.307839 156:-0.63185 157:-0.892788 158:0.243993 159:-0.263917 160:-0.519692 161:-0.671631 162:0.0539957 163:-0.730557 164:-0.278615 165:-0.0606792 166:0.765498 167:0.767619 168:-0.24087 169:-0.349293 170:-0.348092 171:-0.501117 172:-0.104967 173:-0.790775 174:0.384031 175:-0.0367846 176:-0.879586 177:-0.360346 178:0.250928 179:-0.181921 180:-0.107182 181:-0.333577 182:0.150798 183:-0.0379867 184:-0.067193 185:0.210165 186:0.555582 187:0.0574894 188:-0.290509 
2.580174729309933 0.9910615339057284 0 1.194896832404014 0 0 1:-0.401794 2:-0.108611 3:-0.0460024 4:0.40384 5:0.347489 6:-0.471991 7:-0.308068 8:0.386752 9:-0.322279 10:-0.0269249 11:-0.0128228 12:-0.138053 13:0.10395 14:-0.457642 15:0.141827 16:0.4801 17:-0.675573 18:0.102674 19:-0.243798 20:-0.20363 21:-0.439108 22:-1 23:-0.692529 24:0.418458 25:-0.462849 26:0.640123 27:0.383416 28:-0.686126 29:-0.110708 30:-0.64769 31:-0.506644 32:0.840884 33:-0.483155 34:0.0921053 35:-0.0605329 36:-0.250409 37:-0.221856 38:-0.12143 39:-0.170161 40:-0.206658 41:-0.722734 42:-1 43:-0.717184 44:0.225283 45:-0.173491 46:0.148694 47:0.555002 48:-0.235683 49:-0.78305 50:0.325332 51:-0.466867 52:-0.315662 53:0.144514 54:-0.521391 55:0.437154 56:0.848318 57:-0.224982 58:-0.338284 59:-0.428909 60:0.381147 61:0.46952 62:-0.52016 63:-0.0172428 64:0.461615 65:-0.441731 66:0.00647509 67:0.0370381 68:0.0646284 69:-0.0541521 70:-0.0614876 71:-0.434886 72:0.00231515 73:-0.0839756 74:-0.722292 75:-0.232243 76:0.624322 77:-0.366983 78:0.104675 79:-0.0919459 80:-0.0633361 81:0.468086 82:-1 83:-0.100449 84:0.577726 85:-0.155027 86:0.351629 87:0.123502 88:0.216942 89:-0.0663373 90:0.41028 91:-0.0820976 92:0.0257671 93:0.249264 94:-0.870058 95:-0.0113899 96:0.517588 97:0.314652 98:0.224533 99:-0.1497 100:0.411415 101:-0.517074 102:0.464508 103:-0.593021 104:-0.0477844 105:-0.378738 106:0.548671 107:-0.0378296 108:-0.489771 109:-0.364618 110:0.166783 111:0.164184 112:-0.0719676 113:-0.375769 114:0.44909 115:-0.190837 116:-0.00266166 117:-0.702246 118:0.294335 119:-0.497621 120:-0.054475 121:0.208952 122:0.117789 123:-0.0835114 124:0.0447468 125:0.402125 126:0.59977 127:0.500506 128:0.204369 129:-0.541511 130:0.430737 131:0.54598 132:-0.661858 133:-0.636056 134:0.712797 135:0.239321 136:-0.655121 137:-0.176831 138:0.0175927 139:-0.638016 140:0.297526 141:0.373416 142:-0.714376 143:-0.205723 144:1 145:-0.508172 146:0.893206 147:0.720955 148:-0.977242 149:-0.643404 150:0.309698 151:0.222753 152:-0.305446 153:-0.148537 154:0.494398 155:-0.424357 156:-0.393805 157:-0.659706 158:0.0249116 159:-0.115607 160:-0.198714 161:0.0569818 162:0.346404 163:0.107881 164:-0.146697 165:-0.124492 166:-0.572227 167:0.578717 168:0.0529718 169:-0.506676 170:0.0251055 171:-0.238165 172:-0.106494 173:-0.570065 174:0.625037 175:-0.350786 176:-0.905316 177:-0.662125 178:-0.0568032 179:-0.879094 180:-0.410099 181:-0.125075 182:-0.051357 183:0.131247 184:0.183279 185:0.479377 186:-0.0334468 187:0.319538 188:0.668789 
1.847792623820965 0 0 6.338030060961336 0 0 1:-0.0796559 2:-0.311078 3:0.27139 4:0.082809 5:-0.448469 6:0.497 7:-0.259818 8:-0.568374 9:0.0964663 10:-0.0118291 11:-0.307972 12:0.213194 13:-0.295847 14:0.0405665 15:-0.413936 16:-0.131428 17:-0.437667 18:-0.00514086 19:-0.664401 20:-0.0744114 21:0.322271 22:-0.228219 23:0.0711242 24:0.559548 25:-0.844821 26:0.0335257 27:-0.64091 28:-0.158825 29:-0.193848 30:0.436774 31:0.210502 32:-0.180265 33:-0.779659 34:-0.670338 35:-1 36:0.106639 37:-0.630294 38:0.070239 39:-0.476605 40:-0.00333879 41:-0.453149 42:-0.201512 43:-0.516974 44:-0.163281 45:-0.683501 46:-0.685037 47:-0.334467 48:-0.314418 49:0.013367 50:0.501883 51:0.00479425 52:-0.209063 53:-0.295882 54:-0.186248 55:-0.381444 56:0.114255 57:-0.472829 58:0.580375 59:-0.431219 60:-0.33362 61:0.0283138 62:-0.485867 63:0.0186881 64:0.302743 65:-0.152315 66:0.547848 67:0.0476158 68:0.0648884 69:-0.139746 70:-0.52963 71:0.494293 72:0.413889 73:-0.157876 74:0.0225553 75:-0.405248 76:0.205196 77:-0.376642 78:0.349771 79:-0.383291 80:0.364522 81:0.0281973 82:0.579742 83:0.00179685 84:-0.311088 85:-0.151722 86:0.14152 87:0.821659 88:0.417187 89:-0.450112 90:-0.0508796 91:0.32965 92:-0.165733 93:-0.566556 94:-0.124147 95:0.569096 96:-0.0127249 97:0.448769 98:0.511556 99:0.664344 100:0.461431 101:0.254856 102:0.00842141 103:0.104959 104:0.897187 105:0.325794 106:0.830081 107:0.31548 108:0.00714913 109:-0.413492 110:0.397952 111:0.0276704 112:0.202398 113:-0.0941598 114:0.5841 115:0.308652 116:0.48486 117:-0.39605 118:0.330625 119:-0.456506 120:-0.378124 121:-0.428957 122:0.40405 123:-0.369727 124:-0.622692 125:0.303647 126:0.0412968 127:-0.00586824 128:0.416768 129:-0.587333 130:-0.0692269 131:0.0246591 132:-0.647179 133:-0.722992 134:0.239073 135:-0.317854 136:-0.531416 137:-0.0751459 138:0.555314 139:0.546765 140:-0.677605 141:0.0570763 142:0.812713 143:0.558801 144:-0.65635 145:-0.0148206 146:0.232313 147:-0.242504 148:-0.0503051 149:-0.927507 150:-0.513552 151:-0.222608 152:0.365416 153:-0.0659338 154:0.279576 155:0.152677 156:-0.410593 157:-0.731974 158:0.12074 159:-0.503473 160:0.0321836 161:-0.238965 162:0.375762 163:-0.125145 164:-0.295216 165:-0.14122 166:-0.0656435 167:0.338961 168:-0.0496572 169:-0.304971 170:-0.0548668 171:-0.128427 172:0.0985298 173:-0.740062 174:0.46331 175:-0.397843 176:-0.660835 177:0.250532 178:0.580357 179:0.543499 180:-0.378336 181:-0.580815 182:0.430848 183:-0.0804232 184:-0.670261 185:-0.989091 186:0.155408 187:-0.859179 188:-0.406206 
2.566447665544516 0 0 8.730424188591247 0 0 1:-0.123911 2:-0.34086 3:-0.181472 4:0.734527 5:0.0461311 6:0.771997 7:-0.487146 8:-0.519783 9:-0.561358 10:-0.35512 11:-0.512799 12:0.409096 13:-0.917387 14:-0.179318 15:-0.755106 16:-0.696682 17:-0.312212 18:0.0781553 19:-0.122144 20:-0.177605 21:-0.38004 22:-0.343156 23:0.00354861 24:0.0598482 25:-0.160138 26:-0.294221 27:-0.253582 28:0.446344 29:0.0679897 30:-0.0225499 31:0.211615 32:-0.0826049 33:-0.337659 34:-1 35:-0.663811 36:0.839182 37:-0.34402 38:0.126102 39:-0.409864 40:-0.159107 41:-0.0155294 42:-0.249959 43:-0.126423 44:0.234693 45:0.298973 46:0.441018 47:0.465434 48:0.0977383 49:0.169494 50:0.528689 51:0.371085 52:0.284327 53:-0.131287 54:0.041165 55:0.0250237 56:0.0721194 57:-0.537327 58:0.914419 59:-0.0714397 60:-0.734745 61:-0.164976 62:-0.0739122 63:0.262467 64:0.00944159 65:-0.502124 66:0.484843 67:0.246149 68:0.0150214 69:-0.717945 70:0.523532 71:-0.313972 72:-0.397403 73:-0.107895 74:-0.073856 75:-0.25051 76:0.315298 77:0.0349909 78:0.25909 79:-0.0312811 80:0.422564 81:-0.446969 82:0.101571 83:0.0929056 84:-0.42279 85:0.230853 86:0.316497 87:-0.150309 88:0.305884 89:-0.262764 90:0.437554 91:-0.389592 92:0.017849 93:0.204885 94:-0.0962008 95:-0.196316 96:0.818431 97:0.453785 98:0.0121291 99:0.146385 100:0.758629 101:0.162297 102:0.19888 103:-0.141497 104:0.748446 105:0.862582 106:0.317154 107:0.713621 108:0.683671 109:-0.498071 110:-0.380478 111:0.0618269 112:0.122923 113:0.398789 114:0.732431 115:0.756444 116:0.277158 117:0.0013918 118:-0.0296106 119:-0.0650749 120:0.414608 121:-0.0206146 122:0.308988 123:-0.514389 124:-0.253399 125:-0.311259 126:0.640985 127:-0.0449465 128:-0.439688 129:-0.714356 130:-0.0747845 131:-0.190199 132:0.125115 133:-0.310472 134:-0.350442 135:-0.444972 136:-0.164356 137:-0.00816296 138:0.438393 139:0.39306 140:-0.20254 141:0.563273 142:0.462043 143:0.460604 144:-0.19824 145:-0.646945 146:0.472475 147:0.288728 148:-0.49785 149:-0.199832 150:-0.655241 151:-0.627645 152:0.696932 153:1 154:0.583143 155:0.533228 156:0.0712474 157:-0.753194 158:-0.573047 159:-0.596026 160:0.161157 161:-0.0295923 162:-0.00599237 163:-0.489521 164:0.294962 165:-0.362747 166:0.349009 167:0.418434 168:-0.443299 169:-0.660734 170:-0.279647 171:-0.22647 172:-0.234036 173:-0.34127 174:-0.295845 175:-0.339505 176:0.0649987 177:0.276792 178:0.41688 179:0.519589 180:0.337866 181:0.180728 182:0.181004 183:-0.0522422 184:0.120302 185:-0.654524 186:-0.0357617 187:-0.405428 188:-0.292008 
6.033657696075345 1.88105056050973 0 0 0.4481061893216864 1.451911134398449 1:-0.370311 2:-0.1837 3:-0.289983 4:0.294479 5:0.424137 6:-0.206031 7:-0.338331 8:0.341959 9:-0.433217 10:0.10752 11:0.0312665 12:-0.275137 13:-0.0176227 14:-0.282162 15:-0.16186 16:0.11989 17:-0.641352 18:-0.456691 19:-0.0576804 20:0.0846277 21:-0.322315 22:-0.194513 23:-0.146432 24:-0.0276162 25:0.123353 26:-0.0243626 27:0.0990024 28:0.0627585 29:-0.420676 30:-0.47986 31:-0.0890786 32:-0.259888 33:-0.165558 34:-0.720941 35:-0.153569 36:0.595007 37:0.132016 38:-0.291183 39:-0.024705 40:0.249704 41:-0.372819 42:-0.592862 43:-0.14856 44:-0.100424 45:-0.504256 46:-0.144793 47:0.0948518 48:-0.41505 49:-0.719878 50:0.0867559 51:-0.444469 52:-0.516739 53:0.132044 54:-0.262377 55:0.52183 56:0.682552 57:0.0555503 58:0.0137054 59:0.0501311 60:0.070893 61:-0.209868 62:0.0683323 63:-0.491558 64:0.0834653 65:1 66:0.0661936 67:-0.273812 68:0.408068 69:-0.231315 70:0.204564 71:-0.562057 72:-0.0288243 73:-0.126864 74:-0.0271577 75:-0.253958 76:0.0892109 77:-0.210174 78:0.22089 79:-0.134428 80:0.412293 81:-0.0280511 82:0.0335704 83:-0.26303 84:-0.418512 85:0.184521 86:0.166553 87:-0.0210709 88:0.270811 89:-0.162859 90:0.494155 91:-0.0821573 92:-0.0501068 93:-0.368911 94:0.195905 95:0.223284 96:0.123258 97:-0.20481 98:0.210987 99:-0.312445 100:0.128884 101:-0.294616 102:0.605644 103:-0.462404 104:-0.300021 105:-0.298861 106:0.770938 107:-0.0805041 108:-0.452845 109:-0.0304816 110:0.686412 111:0.331537 112:-0.163443 113:-0.277562 114:-0.0340676 115:0.00870943 116:0.0653514 117:0.184843 118:0.111349 119:-0.12897 120:0.18855 121:0.126467 122:-0.11488 123:-0.132047 124:0.294168 125:0.610156 126:-0.294556 127:-0.0230804 128:0.337936 129:0.501148 130:0.207853 131:0.430323 132:0.489526 133:-0.589553 134:0.422899 135:-0.109117 136:-0.369557 137:-0.534132 138:0.0962584 139:-0.0317201 140:-0.333077 141:0.11742 142:-0.244255 143:0.274996 144:-0.110744 145:-0.156261 146:0.607583 147:0.503441 148:-0.711799 149:-0.505774 150:0.347232 151:0.354258 152:-0.344104 153:-0.451552 154:-0.234513 155:-0.387685 156:-0.502408 157:0.0485726 158:0.29853 159:-0.0170803 160:0.0791181 161:-0.246814 162:-0.0431124 163:-0.172264 164:0.0692861 165:0.416626 166:-0.365625 167:0.133056 168:0.259254 169:0.067724 170:-0.484789 171:0.133543 172:0.458527 173:-0.0503663 174:-0.669869 175:-0.531695 176:0.011307 177:-0.45925 178:-0.00699379 179:-0.100095 180:-0.304409 181:0.00253128 182:0.380241 183:0.0882403 184:-0.00767379 185:0.0531307 186:0.164118 187:-0.133505 188:-0.230429 
